{"learner":{"attributes":{"scikit_learn":"{\"_estimator_type\": \"classifier\"}"},"feature_names":[],"feature_types":[],"gradient_booster":{"model":{"cats":{"enc":[],"feature_segments":[],"sorted_idx":[]},"gbtree_model_param":{"num_parallel_tree":"1","num_trees":"100"},"iteration_indptr":[0,1,2,3,4,5,6,7,8,9,10,11,12,13,14,15,16,17,18,19,20,21,22,23,24,25,26,27,28,29,30,31,32,33,34,35,36,37,38,39,40,41,42,43,44,45,46,47,48,49,50,51,52,53,54,55,56,57,58,59,60,61,62,63,64,65,66,67,68,69,70,71,72,73,74,75,76,77,78,79,80,81,82,83,84,85,86,87,88,89,90,91,92,93,94,95,96,97,98,99,100],"tree_info":[0,0,0,0,0,0,0,0,0,0,0,0,0,0,0,0,0,0,0,0,0,0,0,0,0,0,0,0,0,0,0,0,0,0,0,0,0,0,0,0,0,0,0,0,0,0,0,0,0,0,0,0,0,0,0,0,0,0,0,0,0,0,0,0,0,0,0,0,0,0,0,0,0,0,0,0,0,0,0,0,0,0,0,0,0,0,0,0,0,0,0,0,0,0,0,0,0,0,0,0],"trees":[{"base_weights":[-1.05499026E-7,-3.1506887E-1,1.1534067E1,1.109465E1,-4.5821264E-1,1.5357144E1,3.7021117E0,7.182493E-1,7.322909E-2,-5.476743E-1,7.1834345E0,8.296246E-1,2.107056E-1,3.6778754E-1,9.147663E-1,-3.0699193E-2,4.3580738E-1,8.364951E-2,4.3607542E-1,-3.550386E-2,1.2824264E-1],"categories":[],"categories_nodes":[],"categories_segments":[],"categories_sizes":[],"default_left":[0,0,0,0,0,0,0,0,0,0,0,0,0,0,0,0,0,0,0,0,0],"id":0,"left_children":[1,3,5,7,9,11,13,-1,-1,15,17,-1,-1,-1,19,-1,-1,-1,-1,-1,-1],"loss_changes":[1.9992904E3,8.7972766E2,3.8116187E2,1.8918256E2,3.6616125E2,6.1023193E1,5.5557785E1,0E0,0E0,3.276355E2,3.7974945E1,0E0,0E0,0E0,1.4185013E1,0E0,0E0,0E0,0E0,0E0,0E0],"parents":[2147483647,0,0,1,1,2,2,3,3,4,4,5,5,6,6,9,9,10,10,14,14],"right_children":[2,4,6,8,10,12,14,-1,-1,16,18,-1,-1,-1,20,-1,-1,-1,-1,-1,-1],"split_conditions":[6E0,8E1,1.1E0,1.83E1,8E0,9.3E1,1.55E1,7.182493E-1,7.322909E-2,3.75E1,1.2E1,8.296246E-1,2.107056E-1,3.6778754E-1,1.16E2,-3.0699193E-2,4.3580738E-1,8.364951E-2,4.3607542E-1,-3.550386E-2,1.2824264E-1],"split_indices":[91,96,20,16,90,393,216,0,0,97,39,0,0,0,200,0,0,0,0,0,0],"split_type":[0,0,0,0,0,0,0,0,0,0,0,0,0,0,0,0,0,0,0,0,0],"sum_hessian":[5.4815875E2,5.3453E2,1.3628732E1,5.6750555E0,5.28855E2,8.512584E0,5.1161485E0,3.8693562E0,1.8056995E0,5.2365283E2,5.202134E0,7.222798E0,1.2897854E0,1.5047495E0,3.611399E0,5.2085834E2,2.794535E0,1.5907353E0,3.611399E0,2.1066494E0,1.5047495E0],"tree_param":{"num_deleted":"0","num_feature":"500","num_nodes":"21","size_leaf_vector":"1"}},{"base_weights":[-3.1154417E-3,-3.0415374E-1,6.8561153E0,6.488141E0,-4.5995137E-1,7.7885146E0,2.192501E0,7.8212056E0,9.8509353E-1,-6.0613364E-1,3.2352567E0,1.8565203E0,8.412963E0,3.759573E0,-3.319821E-2,4.409035E-1,1.3309923E-1,-3.0945173E-2,1.2135502E-1,-3.3268403E-2,2.8954545E-1,4.3863288E-1,5.188173E-2,-4.2054662E-3,1.4751476E-1,4.3566576E-1,1.1211914E-1,2.8799921E-2,2.8908676E-1],"categories":[],"categories_nodes":[],"categories_segments":[],"categories_sizes":[],"default_left":[0,0,0,0,0,0,0,0,0,0,0,0,0,0,0,0,0,0,0,0,0,0,0,0,0,0,0,0,0],"id":1,"left_children":[1,3,5,7,9,11,13,15,17,19,21,23,25,27,-1,-1,-1,-1,-1,-1,-1,-1,-1,-1,-1,-1,-1,-1,-1],"loss_changes":[1.137715E3,5.6152075E2,8.3652466E1,7.960184E1,2.8117944E2,5.444043E1,2.6003384E1,2.5057983E1,9.516321E0,1.9258673E2,2.321907E2,6.795351E0,1.1651245E1,1.9466957E1,0E0,0E0,0E0,0E0,0E0,0E0,0E0,0E0,0E0,0E0,0E0,0E0,0E0,0E0,0E0],"parents":[2147483647,0,0,1,1,2,2,3,3,4,4,5,5,6,6,7,7,8,8,9,9,10,10,11,11,12,12,13,13],"right_children":[2,4,6,8,10,12,14,16,18,20,22,24,26,28,-1,-1,-1,-1,-1,-1,-1,-1,-1,-1,-1,-1,-1,-1,-1],"split_conditions":[6E0,8.2E1,1.8E0,1.95E1,6E0,2.5E1,9.7E1,9.3E1,1.46E0,3.75E1,8E0,7.952439E1,7.02E1,3.4E-1,-3.319821E-2,4.409035E-1,1.3309923E-1,-3.0945173E-2,1.2135502E-1,-3.3268403E-2,2.8954545E-1,4.3863288E-1,5.188173E-2,-4.2054662E-3,1.4751476E-1,4.3566576E-1,1.1211914E-1,2.8799921E-2,2.8908676E-1],"split_indices":[91,96,20,16,90,1,93,393,58,97,16,100,387,271,0,0,0,0,0,0,0,0,0,0,0,0,0,0,0],"split_type":[0,0,0,0,0,0,0,0,0,0,0,0,0,0,0,0,0,0,0,0,0,0,0,0,0,0,0,0,0],"sum_hessian":[5.4897076E2,5.268059E2,2.2164831E1,1.0901231E1,5.1590466E2,1.7913343E1,4.2514873E0,8.43635E0,2.4648807E0,4.9707632E2,1.8828352E1,2.0845034E0,1.582884E1,2.5412056E0,1.7102813E0,6.4758916E0,1.9604584E0,1.4371216E0,1.0277591E0,4.9340356E2,3.6727602E0,4.499349E0,1.4329002E1,1.084115E0,1.0003885E0,1.4701187E1,1.1276525E0,1.4862239E0,1.0549818E0],"tree_param":{"num_deleted":"0","num_feature":"500","num_nodes":"29","size_leaf_vector":"1"}},{"base_weights":[-3.5982768E-3,-3.5853347E-1,4.3732147E0,4.7151327E0,-4.966886E-1,2.4730468E0,6.372858E0,5.6209135E0,4.1658825E-1,-6.288106E-1,2.8949358E0,4.729929E0,7.237622E-1,2.194494E0,3.5393336E-1,2.9955062E-1,4.743385E-2,-3.0981893E-2,7.359811E-2,-3.4534253E-2,1.7528932E-1,5.0643086E-2,4.1562638E-1,2.1910433E-2,2.7801916E-1,-1.4568529E-2,1.4739159E-1,1.6455558E-1,-2.7993185E-2],"categories":[],"categories_nodes":[],"categories_segments":[],"categories_sizes":[],"default_left":[0,0,0,0,0,0,0,0,0,0,0,0,0,0,0,0,0,0,0,0,0,0,0,0,0,0,0,0,0],"id":2,"left_children":[1,3,5,7,9,11,13,15,17,19,21,23,25,27,-1,-1,-1,-1,-1,-1,-1,-1,-1,-1,-1,-1,-1,-1,-1],"loss_changes":[8.535439E2,3.5857648E2,1.4083954E2,5.04823E1,2.239241E2,8.6458694E1,4.181842E1,1.3554993E1,4.6755223E0,1.2467665E2,1.8289015E2,3.2350433E1,3.2481598E1,1.4708685E1,0E0,0E0,0E0,0E0,0E0,0E0,0E0,0E0,0E0,0E0,0E0,0E0,0E0,0E0,0E0],"parents":[2147483647,0,0,1,1,2,2,3,3,4,4,5,5,6,6,7,7,8,8,9,9,10,10,11,11,12,12,13,13],"right_children":[2,4,6,8,10,12,14,16,18,20,22,24,26,28,-1,-1,-1,-1,-1,-1,-1,-1,-1,-1,-1,-1,-1,-1,-1],"split_conditions":[4E0,8.2E1,8.23E1,1.95E1,1.523E1,3E-2,6.5E1,9.5E1,5.551402E-1,8E0,8.62E1,9E1,2.0597345E1,1.3831885E2,3.5393336E-1,2.9955062E-1,4.743385E-2,-3.0981893E-2,7.359811E-2,-3.4534253E-2,1.7528932E-1,5.0643086E-2,4.1562638E-1,2.1910433E-2,2.7801916E-1,-1.4568529E-2,1.4739159E-1,1.6455558E-1,-2.7993185E-2],"split_indices":[91,96,14,16,58,21,244,393,142,90,14,200,102,153,0,0,0,0,0,0,0,0,0,0,0,0,0,0,0],"split_type":[0,0,0,0,0,0,0,0,0,0,0,0,0,0,0,0,0,0,0,0,0,0,0,0,0,0,0,0,0],"sum_hessian":[5.474288E2,5.0721457E2,4.02142E1,1.2567067E1,4.946475E2,2.1766884E1,1.8447313E1,1.0125756E1,2.441311E0,4.7688486E2,1.776263E1,8.760452E0,1.3006432E1,3.2596283E0,1.5187686E1,9.121003E0,1.0047536E0,1.4401568E0,1.0011541E0,4.7067416E2,6.2107086E0,1.4063813E1,3.6988177E0,1.6680063E0,7.092446E0,9.527008E0,3.4794235E0,2.1920233E0,1.0676048E0],"tree_param":{"num_deleted":"0","num_feature":"500","num_nodes":"29","size_leaf_vector":"1"}},{"base_weights":[-3.6218574E-3,-3.46848E-1,3.5818894E0,-6.221348E-1,1.9421123E0,4.5866504E0,1.7585984E0,-6.780919E-1,3.800875E0,-3.8214287E-1,4.137079E0,2.6720867E0,5.2072344E0,3.5918653E0,4.9905145E-1,-3.700829E-2,1.3849784E-1,2.4035528E-1,4.103293E-2,1.4955805E-1,-3.2938164E-2,2.7772817E-1,7.959648E-2,2.5664931E-2,1.9004294E-1,2.6630536E-1,7.023803E-2,6.8954244E-2,2.4038458E-1,1.14787936E-1,-1.5053547E-2],"categories":[],"categories_nodes":[],"categories_segments":[],"categories_sizes":[],"default_left":[0,0,0,0,0,0,0,0,0,0,0,0,0,0,0,0,0,0,0,0,0,0,0,0,0,0,0,0,0,0,0],"id":3,"left_children":[1,3,5,7,9,11,13,15,17,19,21,23,25,27,29,-1,-1,-1,-1,-1,-1,-1,-1,-1,-1,-1,-1,-1,-1,-1,-1],"loss_changes":[6.729797E2,3.156816E2,7.945593E1,1.1302307E2,2.761551E2,2.1943298E1,4.114595E1,9.6550766E1,1.3227547E1,2.7216936E1,9.132449E1,2.105629E1,2.34375E0,1.33097E1,1.8206465E1,0E0,0E0,0E0,0E0,0E0,0E0,0E0,0E0,0E0,0E0,0E0,0E0,0E0,0E0,0E0,0E0],"parents":[2147483647,0,0,1,1,2,2,3,3,4,4,5,5,6,6,7,7,8,8,9,9,10,10,11,11,12,12,13,13,14,14],"right_children":[2,4,6,8,10,12,14,16,18,20,22,24,26,28,30,-1,-1,-1,-1,-1,-1,-1,-1,-1,-1,-1,-1,-1,-1,-1,-1],"split_conditions":[4E0,8.44E1,1.08E1,3.75E1,2.01E0,8E0,3E-2,8E0,9.745788E1,9.3E1,9.3E1,3.2E1,6.75E1,3.73E0,8.5E1,-3.700829E-2,1.3849784E-1,2.4035528E-1,4.103293E-2,1.4955805E-1,-3.2938164E-2,2.7772817E-1,7.959648E-2,2.5664931E-2,1.9004294E-1,2.6630536E-1,7.023803E-2,6.8954244E-2,2.4038458E-1,1.14787936E-1,-1.5053547E-2],"split_indices":[91,14,16,97,58,255,21,90,193,93,393,1,387,58,393,0,0,0,0,0,0,0,0,0,0,0,0,0,0,0,0],"split_type":[0,0,0,0,0,0,0,0,0,0,0,0,0,0,0,0,0,0,0,0,0,0,0,0,0,0,0,0,0,0,0],"sum_hessian":[5.4484326E2,4.9806848E2,4.6774773E1,4.4524796E2,5.2820515E1,2.9179327E1,1.7595444E1,4.4052145E2,4.7265034E0,2.6055834E1,2.676468E1,8.441674E0,2.0737654E1,6.4116273E0,1.1183817E1,4.3350262E2,7.0188437E0,3.0751982E0,1.6513051E0,1.2309939E0,2.482484E1,1.6431166E1,1.0333515E1,3.3978984E0,5.043776E0,1.9720459E1,1.0171937E0,3.0304832E0,3.3811443E0,2.8699555E0,8.313861E0],"tree_param":{"num_deleted":"0","num_feature":"500","num_nodes":"31","size_leaf_vector":"1"}},{"base_weights":[-3.1395706E-3,-4.852302E-1,2.1196094E0,-6.162503E-1,2.783077E0,2.694132E-1,3.4870267E0,3.8726745E0,-6.784957E-1,3.3989518E0,4.0325227E-1,4.172057E0,-4.7210288E-1,2.3437753E0,4.798017E0,2.2430263E-1,2.1493157E-2,-3.7139755E-2,1.11505345E-1,6.0879905E-2,1.9352402E-1,-3.8943406E-2,1.1224705E-1,2.2991948E-1,4.275332E-2,-3.704477E-2,5.420915E-2,5.8971554E-2,1.9940339E-1,6.311011E-2,2.5491616E-1],"categories":[],"categories_nodes":[],"categories_segments":[],"categories_sizes":[],"default_left":[0,0,0,0,0,0,0,0,0,0,0,0,0,0,0,0,0,0,0,0,0,0,0,0,0,0,0,0,0,0,0],"id":4,"left_children":[1,3,5,7,9,11,13,15,17,19,21,23,25,27,29,-1,-1,-1,-1,-1,-1,-1,-1,-1,-1,-1,-1,-1,-1,-1,-1],"loss_changes":[5.562019E2,1.9137619E2,2.5355197E2,1.2184277E2,2.3915787E1,1.2881468E2,7.5321045E1,1.070919E1,8.0518875E1,9.245987E0,1.1940536E1,6.108757E0,1.6587275E1,5.81071E1,2.1119263E1,0E0,0E0,0E0,0E0,0E0,0E0,0E0,0E0,0E0,0E0,0E0,0E0,0E0,0E0,0E0,0E0],"parents":[2147483647,0,0,1,1,2,2,3,3,4,4,5,5,6,6,7,7,8,8,9,9,10,10,11,11,12,12,13,13,14,14],"right_children":[2,4,6,8,10,12,14,16,18,20,22,24,26,28,30,-1,-1,-1,-1,-1,-1,-1,-1,-1,-1,-1,-1,-1,-1,-1,-1],"split_conditions":[8.25E1,6E0,2.44E0,7.5E1,9.8E1,9.3E1,2.74E2,4.02E0,3.72E1,9.5E1,5.2E1,1.322E2,2.1749704E0,4E0,4.5E0,2.2430263E-1,2.1493157E-2,-3.7139755E-2,1.11505345E-1,6.0879905E-2,1.9352402E-1,-3.8943406E-2,1.1224705E-1,2.2991948E-1,4.275332E-2,-3.704477E-2,5.420915E-2,5.8971554E-2,1.9940339E-1,6.311011E-2,2.5491616E-1],"split_indices":[14,91,58,96,93,93,45,213,97,200,201,184,493,90,115,0,0,0,0,0,0,0,0,0,0,0,0,0,0,0,0],"split_type":[0,0,0,0,0,0,0,0,0,0,0,0,0,0,0,0,0,0,0,0,0,0,0,0,0,0,0,0,0,0,0],"sum_hessian":[5.415021E2,4.4191223E2,9.958984E1,4.256598E2,1.6252422E1,4.283228E1,5.6757565E1,4.984423E0,4.2067538E2,1.25709505E1,3.6814723E0,6.1001954E0,3.6732082E1,3.1807535E1,2.495003E1,3.9734797E0,1.0109434E0,4.1230533E2,8.370062E0,2.8710992E0,9.699851E0,2.593731E0,1.0877415E0,5.063119E0,1.0370765E0,3.1769053E1,4.96303E0,1.9626822E1,1.2180714E1,2.3604965E0,2.2589533E1],"tree_param":{"num_deleted":"0","num_feature":"500","num_nodes":"31","size_leaf_vector":"1"}},{"base_weights":[-2.7318208E-3,-3.2645676E-1,2.7346458E0,-5.9685886E-1,1.5298829E0,1.5854723E0,3.4796016E0,1.5807127E0,-7.041424E-1,2.3893331E-1,3.5045443E0,2.3732493E0,-1.2723805E-1,1.5136019E0,1.9999313E-1,3.843998E-2,2.1294384E-1,-3.7711613E-2,7.4098766E-2,1.7017274E-1,-7.353723E-3,8.741326E-2,2.3610409E-1,3.6718164E-2,1.5469812E-1,8.042639E-2,-3.8091354E-2,-2.7904866E-2,1.3383277E-1],"categories":[],"categories_nodes":[],"categories_segments":[],"categories_sizes":[],"default_left":[0,0,0,0,0,0,0,0,0,0,0,0,0,0,0,0,0,0,0,0,0,0,0,0,0,0,0,0,0],"id":5,"left_children":[1,3,5,7,9,11,13,15,17,19,21,23,25,27,-1,-1,-1,-1,-1,-1,-1,-1,-1,-1,-1,-1,-1,-1,-1],"loss_changes":[4.7823776E2,2.4315572E2,4.334259E1,9.96893E1,1.562937E2,3.306646E1,2.8506744E1,4.0477108E1,4.522911E1,4.7340916E1,4.36933E1,1.743457E1,1.0697972E1,2.240675E1,0E0,0E0,0E0,0E0,0E0,0E0,0E0,0E0,0E0,0E0,0E0,0E0,0E0,0E0,0E0],"parents":[2147483647,0,0,1,1,2,2,3,3,4,4,5,5,6,6,7,7,8,8,9,9,10,10,11,11,12,12,13,13],"right_children":[2,4,6,8,10,12,14,16,18,20,22,24,26,28,-1,-1,-1,-1,-1,-1,-1,-1,-1,-1,-1,-1,-1,-1,-1],"split_conditions":[4E0,8.44E1,1E-1,9.1E1,5.61E0,1.1E0,7.6E1,7.71E0,3.72E1,9.3E1,9.9E0,1.8307692E1,8.5E1,3.94E0,1.9999313E-1,3.843998E-2,2.1294384E-1,-3.7711613E-2,7.4098766E-2,1.7017274E-1,-7.353723E-3,8.741326E-2,2.3610409E-1,3.6718164E-2,1.5469812E-1,8.042639E-2,-3.8091354E-2,-2.7904866E-2,1.3383277E-1],"split_indices":[91,14,71,96,58,20,14,58,97,93,211,102,393,58,0,0,0,0,0,0,0,0,0,0,0,0,0,0,0],"split_type":[0,0,0,0,0,0,0,0,0,0,0,0,0,0,0,0,0,0,0,0,0,0,0,0,0,0,0,0,0],"sum_hessian":[5.376684E2,4.8159525E2,5.607318E1,4.209556E2,6.063965E1,2.3283768E1,3.2789413E1,1.912077E1,4.0183484E2,3.734565E1,2.3293999E1,1.5684068E1,7.599701E0,7.6793694E0,2.5110043E1,1.5660262E1,3.4605076E0,3.9347427E2,8.360565E0,3.2103004E0,3.413535E1,1.0534315E1,1.2759684E1,5.407185E0,1.0276882E1,1.6237011E0,5.976E0,2.9481306E0,4.731239E0],"tree_param":{"num_deleted":"0","num_feature":"500","num_nodes":"29","size_leaf_vector":"1"}},{"base_weights":[-2.1504704E-3,-4.60196E-1,1.7056973E0,-5.845768E-1,2.4822433E0,2.7691905E0,3.0758125E-1,-6.728669E-1,2.5511076E0,3.602242E0,1.0858295E0,2.03404E0,3.663286E0,-3.9251754E-1,2.5661385E0,-3.550225E-2,1.6371997E-1,1.9804457E-1,4.456171E-2,5.772112E-2,2.0746505E-1,1.491018E-3,1.2539594E-1,3.621148E-2,1.4355837E-1,1.8834272E-1,3.6160734E-2,-2.8945345E-2,1.4755802E-1,2.3720177E-1,5.325464E-2],"categories":[],"categories_nodes":[],"categories_segments":[],"categories_sizes":[],"default_left":[0,0,0,0,0,0,0,0,0,0,0,0,0,0,0,0,0,0,0,0,0,0,0,0,0,0,0,0,0,0,0],"id":6,"left_children":[1,3,5,7,9,11,13,15,17,19,21,23,25,27,29,-1,-1,-1,-1,-1,-1,-1,-1,-1,-1,-1,-1,-1,-1,-1,-1],"loss_changes":[4.1861804E2,1.5588025E2,1.6741983E2,1.1402159E2,2.315158E1,3.4715668E1,8.0096596E1,6.0341263E1,2.2954079E1,7.490608E0,1.3640718E1,3.89879E1,5.7098694E0,2.6045305E1,3.4073074E1,0E0,0E0,0E0,0E0,0E0,0E0,0E0,0E0,0E0,0E0,0E0,0E0,0E0,0E0,0E0,0E0],"parents":[2147483647,0,0,1,1,2,2,3,3,4,4,5,5,6,6,7,7,8,8,9,9,10,10,11,11,12,12,13,13,14,14],"right_children":[2,4,6,8,10,12,14,16,18,20,22,24,26,28,30,-1,-1,-1,-1,-1,-1,-1,-1,-1,-1,-1,-1,-1,-1,-1,-1],"split_conditions":[8.25E1,7E0,9.2E1,3.73E1,3E-2,9.2E1,1.21E2,3.39E1,5.4529667E-1,4.5357874E-1,2.098593E0,1.12E0,2.14E1,5.4E0,9.6E1,-3.550225E-2,1.6371997E-1,1.9804457E-1,4.456171E-2,5.772112E-2,2.0746505E-1,1.491018E-3,1.2539594E-1,3.621148E-2,1.4355837E-1,1.8834272E-1,3.6160734E-2,-2.8945345E-2,1.4755802E-1,2.3720177E-1,5.325464E-2],"split_indices":[14,90,393,97,21,0,44,82,490,497,453,89,30,54,93,0,0,0,0,0,0,0,0,0,0,0,0,0,0,0,0],"split_type":[0,0,0,0,0,0,0,0,0,0,0,0,0,0,0,0,0,0,0,0,0,0,0,0,0,0,0,0,0,0,0],"sum_hessian":[5.331276E2,4.2095724E2,1.1217038E2,4.0465335E2,1.6303905E1,6.315224E1,4.901814E1,3.9433563E2,1.0317717E1,8.170826E0,8.13308E0,3.6453835E1,2.6698404E1,3.8049816E1,1.0968325E1,3.9146863E2,2.8670096E0,4.829558E0,5.488158E0,2.0606527E0,6.1101737E0,5.2531714E0,2.8799083E0,1.49412155E1,2.1512619E1,2.5518272E1,1.1801318E0,3.682397E1,1.2258433E0,3.5936868E0,7.3746376E0],"tree_param":{"num_deleted":"0","num_feature":"500","num_nodes":"31","size_leaf_vector":"1"}},{"base_weights":[-8.443237E-4,-3.0764925E-1,2.2627993E0,-4.8074022E-1,2.1752772E0,2.480709E0,2.209829E-1,-6.158625E-1,1.7417166E0,7.808259E-1,4.1464624E0,1.4019136E0,2.8959627E0,-4.1942246E-2,1.5046234E0,-3.3205565E-2,1.483097E-1,1.3430163E-1,1.1211449E-2,1.4880666E-1,-1.3460039E-2,1.1030549E-1,2.5009197E-1,1.1620134E-1,7.608971E-3,3.7773147E-2,1.528514E-1,1.3139948E-2,9.9309586E-2],"categories":[],"categories_nodes":[],"categories_segments":[],"categories_sizes":[],"default_left":[0,0,0,0,0,0,0,0,0,0,0,0,0,0,0,0,0,0,0,0,0,0,0,0,0,0,0,0,0],"id":7,"left_children":[1,3,5,7,9,11,13,15,17,19,21,23,25,-1,27,-1,-1,-1,-1,-1,-1,-1,-1,-1,-1,-1,-1,-1,-1],"loss_changes":[3.6819717E2,2.0169852E2,2.7606903E1,1.3238766E2,8.0893524E1,2.1510284E1,1.1057251E1,7.3340164E1,3.5685493E1,4.4963173E1,9.627838E0,2.0162395E1,1.1576324E1,0E0,1.6393566E0,0E0,0E0,0E0,0E0,0E0,0E0,0E0,0E0,0E0,0E0,0E0,0E0,0E0,0E0],"parents":[2147483647,0,0,1,1,2,2,3,3,4,4,5,5,6,6,7,7,8,8,9,9,10,10,11,11,12,12,14,14],"right_children":[2,4,6,8,10,12,14,16,18,20,22,24,26,-1,28,-1,-1,-1,-1,-1,-1,-1,-1,-1,-1,-1,-1,-1,-1],"split_conditions":[4E0,1.483E1,2.8824621E1,6E0,2.2904864E-1,2.18E0,4.1210475E0,8.68E2,1.48E1,7E-1,2.1068928E1,8E0,3.6072415E-1,-4.1942246E-2,6.53E1,-3.3205565E-2,1.483097E-1,1.3430163E-1,1.1211449E-2,1.4880666E-1,-1.3460039E-2,1.1030549E-1,2.5009197E-1,1.1620134E-1,7.608971E-3,3.7773147E-2,1.528514E-1,1.3139948E-2,9.9309586E-2],"split_indices":[91,58,487,90,455,58,409,45,16,220,147,16,497,0,314,0,0,0,0,0,0,0,0,0,0,0,0,0,0],"split_type":[0,0,0,0,0,0,0,0,0,0,0,0,0,0,0,0,0,0,0,0,0,0,0,0,0,0,0,0,0],"sum_hessian":[5.281614E2,4.658818E2,6.227961E1,4.362744E2,2.9607388E1,5.6079643E1,6.1999645E0,4.1195123E2,2.432317E1,1.8158127E1,1.144926E1,1.680296E1,3.9276684E1,3.5858483E0,2.6141164E0,4.0727994E2,4.6712856E0,1.4518447E1,9.804724E0,5.281556E0,1.2876572E1,4.5980544E0,6.8512053E0,9.1741905E0,7.62877E0,3.146831E0,3.6129852E1,1.1623833E0,1.4517331E0],"tree_param":{"num_deleted":"0","num_feature":"500","num_nodes":"29","size_leaf_vector":"1"}},{"base_weights":[-1.051786E-4,-4.3847045E-1,1.4689949E0,1.75783E0,-5.844801E-1,4.45981E-1,2.4332707E0,2.6474514E0,1.856676E-1,-6.828307E-1,1.6233264E0,-3.4366336E-1,1.6494126E0,6.3557607E-1,2.7420819E0,1.574535E-1,2.0357126E-2,-1.7971672E-2,9.332256E-2,-3.8823273E-2,2.9450873E-2,1.05631605E-1,-1.7781926E-2,-2.8646007E-2,5.984612E-2,1.1933244E-2,1.1109904E-1,1.3306685E-1,-1.5509011E-2,1.00675575E-1,1.6348252E-1],"categories":[],"categories_nodes":[],"categories_segments":[],"categories_sizes":[],"default_left":[0,0,0,0,0,0,0,0,0,0,0,0,0,0,0,0,0,0,0,0,0,0,0,0,0,0,0,0,0,0,0],"id":8,"left_children":[1,3,5,7,9,11,13,15,17,19,21,23,25,27,29,-1,-1,-1,-1,-1,-1,-1,-1,-1,-1,-1,-1,-1,-1,-1,-1],"loss_changes":[3.3811346E2,1.3069835E2,1.17939575E2,3.5111526E1,8.3600815E1,5.7365303E1,3.2613922E1,1.690207E1,1.0084245E1,4.385434E1,1.6726574E1,1.37244835E1,1.8736893E1,2.070147E1,1.3601013E1,0E0,0E0,0E0,0E0,0E0,0E0,0E0,0E0,0E0,0E0,0E0,0E0,0E0,0E0,0E0,0E0],"parents":[2147483647,0,0,1,1,2,2,3,3,4,4,5,5,6,6,7,7,8,8,9,9,10,10,11,11,12,12,13,13,14,14],"right_children":[2,4,6,8,10,12,14,16,18,20,22,24,26,28,30,-1,-1,-1,-1,-1,-1,-1,-1,-1,-1,-1,-1,-1,-1,-1,-1],"split_conditions":[8.25E1,9.1E1,9.4E1,1.4E0,6E0,1.9247868E0,1.3512241E0,9.4E1,8.01453E0,1.01E2,9.8E1,2.267E1,1.58E0,9.6E1,8.7E1,1.574535E-1,2.0357126E-2,-1.7971672E-2,9.332256E-2,-3.8823273E-2,2.9450873E-2,1.05631605E-1,-1.7781926E-2,-2.8646007E-2,5.984612E-2,1.1933244E-2,1.1109904E-1,1.3306685E-1,-1.5509011E-2,1.00675575E-1,1.6348252E-1],"split_indices":[14,96,244,20,91,493,493,393,115,0,93,258,58,93,0,0,0,0,0,0,0,0,0,0,0,0,0,0,0,0,0],"split_type":[0,0,0,0,0,0,0,0,0,0,0,0,0,0,0,0,0,0,0,0,0,0,0,0,0,0,0,0,0,0,0],"sum_hessian":[5.230187E2,4.0336118E2,1.1965754E2,2.445568E1,3.789055E2,5.877005E1,6.0887486E1,1.5181273E1,9.274408E0,3.6340756E2,1.5497909E1,3.59171E1,2.2852953E1,9.374354E0,5.1513134E1,1.2072522E1,3.1087506E0,7.59681E0,1.677598E0,3.3885056E2,2.4557028E1,1.2371476E1,3.1264322E0,3.1811325E1,4.1057744E0,7.006501E0,1.5846451E1,2.4062705E0,6.9680834E0,2.365804E1,2.7855095E1],"tree_param":{"num_deleted":"0","num_feature":"500","num_nodes":"31","size_leaf_vector":"1"}},{"base_weights":[2.0750953E-4,-4.2667142E-1,1.3515714E0,-5.750772E-1,1.5962877E0,7.416977E-2,1.9817033E0,-6.580274E-1,1.9652783E0,2.6287367E0,5.2875084E-1,2.7053568E0,-4.8770213E-1,2.7328568E0,1.4094781E0,-3.454544E-2,1.7021182E-1,1.5275735E-1,2.390763E-2,1.4251631E-1,-3.9464957E-3,-1.7851429E-2,9.205156E-2,1.5249173E-1,1.2417191E-2,-3.4680754E-2,7.495416E-2,4.738867E-2,1.4915715E-1,1.23895206E-1,3.286279E-2],"categories":[],"categories_nodes":[],"categories_segments":[],"categories_sizes":[],"default_left":[0,0,0,0,0,0,0,0,0,0,0,0,0,0,0,0,0,0,0,0,0,0,0,0,0,0,0,0,0,0,0],"id":9,"left_children":[1,3,5,7,9,11,13,15,17,19,21,23,25,27,29,-1,-1,-1,-1,-1,-1,-1,-1,-1,-1,-1,-1,-1,-1,-1,-1],"loss_changes":[2.9974094E2,1.1946442E2,1.0025484E2,7.896871E1,2.864737E1,6.3771214E1,3.2034607E1,5.0132065E1,1.7837055E1,8.386208E0,1.7686869E1,5.6633797E0,1.5627237E1,1.282608E1,3.8117523E1,0E0,0E0,0E0,0E0,0E0,0E0,0E0,0E0,0E0,0E0,0E0,0E0,0E0,0E0,0E0,0E0],"parents":[2147483647,0,0,1,1,2,2,3,3,4,4,5,5,6,6,7,7,8,8,9,9,10,10,11,11,12,12,13,13,14,14],"right_children":[2,4,6,8,10,12,14,16,18,20,22,24,26,28,30,-1,-1,-1,-1,-1,-1,-1,-1,-1,-1,-1,-1,-1,-1,-1,-1],"split_conditions":[8.25E1,6E0,2.06E0,3.73E1,3E-2,9.2E1,4.9E0,4.41E1,5.4529667E-1,3.02E2,2.098593E0,6.019449E0,1.04E2,1.5081761E0,1.06E2,-3.454544E-2,1.7021182E-1,1.5275735E-1,2.390763E-2,1.4251631E-1,-3.9464957E-3,-1.7851429E-2,9.205156E-2,1.5249173E-1,1.2417191E-2,-3.4680754E-2,7.495416E-2,4.738867E-2,1.4915715E-1,1.23895206E-1,3.286279E-2],"split_indices":[14,90,58,97,21,93,16,82,490,10,453,412,0,157,96,0,0,0,0,0,0,0,0,0,0,0,0,0,0,0,0],"split_type":[0,0,0,0,0,0,0,0,0,0,0,0,0,0,0,0,0,0,0,0,0,0,0,0,0,0,0,0,0,0,0],"sum_hessian":[5.1760016E2,3.9386685E2,1.2373334E2,3.6761414E2,2.625271E1,4.124312E1,8.249022E1,3.5670752E2,1.0906602E1,1.2602245E1,1.3650465E1,6.586118E0,3.4656998E1,3.403588E1,4.845434E1,3.5466666E2,2.0408778E0,5.685487E0,5.221115E0,1.1600221E1,1.002025E0,8.584156E0,5.0663085E0,5.564665E0,1.0214533E0,3.1992176E1,2.664824E0,4.773962E0,2.9261917E1,1.9071642E1,2.93827E1],"tree_param":{"num_deleted":"0","num_feature":"500","num_nodes":"31","size_leaf_vector":"1"}},{"base_weights":[1.1163404E-3,1.8019012E0,-2.945025E-1,-7.3403406E-1,2.1648686E0,-5.3848433E-1,1.325377E0,2.2075234E-2,-4.5877732E-2,1.2743813E0,2.7852147E0,-6.2898093E-1,1.2581106E0,3.2400683E-2,2.3673284E0,8.7353E-2,-2.3609005E-2,1.5669262E-1,7.588064E-2,5.406734E-2,-3.4874074E-2,8.314748E-2,-2.8826872E-2,8.0410674E-2,-2.6947444E-2,4.635743E-2,1.5989958E-1],"categories":[],"categories_nodes":[],"categories_segments":[],"categories_sizes":[],"default_left":[0,0,0,0,0,0,0,0,0,0,0,0,0,0,0,0,0,0,0,0,0,0,0,0,0,0,0],"id":10,"left_children":[1,3,5,7,9,11,13,-1,-1,15,17,19,21,23,25,-1,-1,-1,-1,-1,-1,-1,-1,-1,-1,-1,-1],"loss_changes":[2.7354166E2,6.8283905E1,1.7515927E2,2.5234437E0,3.1605286E1,6.3276268E1,7.815232E1,0E0,0E0,2.39188E1,1.1447723E1,4.3699417E1,1.4895174E1,2.5109344E1,3.5485413E1,0E0,0E0,0E0,0E0,0E0,0E0,0E0,0E0,0E0,0E0,0E0,0E0],"parents":[2147483647,0,0,1,1,2,2,3,3,4,4,5,5,6,6,9,9,10,10,11,11,12,12,13,13,14,14],"right_children":[2,4,6,8,10,12,14,-1,-1,16,18,20,22,24,26,-1,-1,-1,-1,-1,-1,-1,-1,-1,-1,-1,-1],"split_conditions":[9.3E1,4.2E1,1.033E1,3.2608698E-3,9.879508E0,6E0,1.58E1,2.2075234E-2,-4.5877732E-2,1.71E1,2.3E1,8.8E1,1.9E0,4E-1,2.9E-1,8.7353E-2,-2.3609005E-2,1.5669262E-1,7.588064E-2,5.406734E-2,-3.4874074E-2,8.314748E-2,-2.8826872E-2,8.0410674E-2,-2.6947444E-2,4.635743E-2,1.5989958E-1],"split_indices":[93,93,58,125,400,91,30,0,0,16,379,96,20,20,71,0,0,0,0,0,0,0,0,0,0,0,0],"split_type":[0,0,0,0,0,0,0,0,0,0,0,0,0,0,0,0,0,0,0,0,0,0,0,0,0,0,0],"sum_hessian":[5.1184515E2,7.1457985E1,4.4038718E2,8.819148E0,6.2638832E1,3.833201E2,5.7067062E1,1.0010679E0,7.81808E0,2.6973507E1,3.566533E1,3.6555652E2,1.77636E1,2.5926052E1,3.1141008E1,2.122816E1,5.7453446E0,2.6817297E1,8.84803E0,1.3507759E1,3.5204874E2,1.4629088E1,3.1345115E0,6.4158983E0,1.9510155E1,1.2165305E1,1.8975704E1],"tree_param":{"num_deleted":"0","num_feature":"500","num_nodes":"27","size_leaf_vector":"1"}},{"base_weights":[1.1337117E-3,-4.22422E-1,1.1568048E0,-5.6882465E-1,1.3746349E0,3.4050158E-1,1.9326775E0,-6.426459E-1,1.8028785E0,2.2786999E0,3.776106E-1,1.7646785E0,-1.5706252E-1,2.2562196E0,1.049808E0,-3.409606E-2,1.17395006E-1,1.2099101E-1,-1.7656612E-3,1.2314929E-1,8.355574E-3,-1.5509385E-2,1.08412914E-1,2.1708086E-2,1.14954405E-1,-1.6748069E-2,1.4094625E-1,4.727334E-2,1.2019993E-1,8.0069965E-3,1.02067366E-1],"categories":[],"categories_nodes":[],"categories_segments":[],"categories_sizes":[],"default_left":[0,0,0,0,0,0,0,0,0,0,0,0,0,0,0,0,0,0,0,0,0,0,0,0,0,0,0,0,0,0,0],"id":11,"left_children":[1,3,5,7,9,11,13,15,17,19,21,23,25,27,29,-1,-1,-1,-1,-1,-1,-1,-1,-1,-1,-1,-1,-1,-1,-1,-1],"loss_changes":[2.4862733E2,9.857475E1,8.562213E1,6.1458565E1,2.4642529E1,4.817887E1,1.7520935E1,4.091902E1,1.2173618E1,5.2852936E0,1.8720009E1,1.15047035E1,2.7952702E1,7.4289093E0,1.7795815E1,0E0,0E0,0E0,0E0,0E0,0E0,0E0,0E0,0E0,0E0,0E0,0E0,0E0,0E0,0E0,0E0],"parents":[2147483647,0,0,1,1,2,2,3,3,4,4,5,5,6,6,7,7,8,8,9,9,10,10,11,11,12,12,13,13,14,14],"right_children":[2,4,6,8,10,12,14,16,18,20,22,24,26,28,30,-1,-1,-1,-1,-1,-1,-1,-1,-1,-1,-1,-1,-1,-1,-1,-1],"split_conditions":[8.18E1,6E0,1.1E-1,3.74E1,3E-2,8.9E1,1.23E2,2.98E1,9.714035E1,3.21E1,1.5541869E1,7.7E1,3.72E1,9.301186E0,3E0,-3.409606E-2,1.17395006E-1,1.2099101E-1,-1.7656612E-3,1.2314929E-1,8.355574E-3,-1.5509385E-2,1.08412914E-1,2.1708086E-2,1.14954405E-1,-1.6748069E-2,1.4094625E-1,4.727334E-2,1.2019993E-1,8.0069965E-3,1.02067366E-1],"split_indices":[14,90,71,97,21,393,96,82,193,328,444,0,97,496,91,0,0,0,0,0,0,0,0,0,0,0,0,0,0,0,0],"split_type":[0,0,0,0,0,0,0,0,0,0,0,0,0,0,0,0,0,0,0,0,0,0,0,0,0,0,0,0,0,0,0],"sum_hessian":[5.0593195E2,3.7070303E2,1.352289E2,3.434096E2,2.7293436E1,6.6598656E1,6.863024E1,3.3375037E2,9.659222E0,1.3639834E1,1.3653601E1,1.6583912E1,5.0014744E1,4.9086224E1,1.9544022E1,3.3018597E2,3.564408E0,6.995088E0,2.6641338E0,1.23919325E1,1.2479019E0,1.0461898E1,3.1917028E0,5.271614E0,1.1312298E1,4.8030987E1,1.9837555E0,5.722982E0,4.336324E1,1.0913385E1,8.630635E0],"tree_param":{"num_deleted":"0","num_feature":"500","num_nodes":"31","size_leaf_vector":"1"}},{"base_weights":[2.0939275E-3,1.591214E0,-2.7925953E-1,-7.139511E-1,1.8852189E0,-5.187633E-1,1.1841567E0,2.2213724E-2,-4.5405462E-2,1.1062547E0,2.3949754E0,-6.0847485E-1,1.1342163E0,2.4198988E-1,2.2680178E0,1.1078297E-1,2.2711692E-2,1.3166621E-1,5.1231176E-2,4.836064E-2,-3.3880662E-2,7.407611E-2,-2.7918158E-2,8.65674E-2,-2.6592923E-2,2.280424E-2,1.374694E-1],"categories":[],"categories_nodes":[],"categories_segments":[],"categories_sizes":[],"default_left":[0,0,0,0,0,0,0,0,0,0,0,0,0,0,0,0,0,0,0,0,0,0,0,0,0,0,0],"id":12,"left_children":[1,3,5,7,9,11,13,-1,-1,15,17,19,21,23,25,-1,-1,-1,-1,-1,-1,-1,-1,-1,-1,-1,-1],"loss_changes":[2.2434247E2,5.2497467E1,1.5002933E2,2.486422E0,2.4039291E1,5.5118744E1,6.0987938E1,0E0,0E0,1.956894E1,1.0290863E1,3.86532E1,1.213957E1,3.9365955E1,2.3083862E1,0E0,0E0,0E0,0E0,0E0,0E0,0E0,0E0,0E0,0E0,0E0,0E0],"parents":[2147483647,0,0,1,1,2,2,3,3,4,4,5,5,6,6,9,9,10,10,11,11,12,12,13,13,14,14],"right_children":[2,4,6,8,10,12,14,-1,-1,16,18,20,22,24,26,-1,-1,-1,-1,-1,-1,-1,-1,-1,-1,-1,-1],"split_conditions":[9.3E1,4.2E1,1.033E1,1.34E2,9.72431E0,6E0,8.124405E0,2.2213724E-2,-4.5405462E-2,8.8E1,2.08E1,8.8E1,1.9E0,1.06E1,1.61E1,1.1078297E-1,2.2711692E-2,1.3166621E-1,5.1231176E-2,4.836064E-2,-3.3880662E-2,7.407611E-2,-2.7918158E-2,8.65674E-2,-2.6592923E-2,2.280424E-2,1.374694E-1],"split_indices":[93,93,58,210,400,91,445,0,0,93,375,96,20,216,230,0,0,0,0,0,0,0,0,0,0,0,0],"split_type":[0,0,0,0,0,0,0,0,0,0,0,0,0,0,0,0,0,0,0,0,0,0,0,0,0,0,0],"sum_hessian":[4.9977362E2,7.447482E1,4.252988E2,8.262644E0,6.621218E1,3.6603824E2,5.9260567E1,1.0013009E0,7.2613425E0,2.7444347E1,3.876783E1,3.477944E2,1.8243824E1,3.2356945E1,2.690362E1,9.271268E0,1.817308E1,3.223881E1,6.5290203E0,1.4073136E1,3.3372128E2,1.524114E1,3.002684E0,1.0640597E1,2.171635E1,6.055917E0,2.0847704E1],"tree_param":{"num_deleted":"0","num_feature":"500","num_nodes":"27","size_leaf_vector":"1"}},{"base_weights":[2.2682475E-3,-4.0280008E-1,1.04036E0,1.2891614E0,-5.4104906E-1,3.5624608E-1,1.7798231E0,1.9442339E0,4.0433493E-2,-6.3623846E-1,1.2265928E0,-2.4048015E-1,1.2957041E0,2.2352552E0,1.091261E0,1.1994498E-1,2.6752282E-2,-2.7246341E-2,5.978436E-2,-3.3300187E-2,1.6219394E-1,7.7290334E-2,-2.7712721E-2,7.959107E-2,-2.1190643E-2,8.668118E-2,2.4695147E-2,3.0790845E-2,1.1962443E-1,-1.812978E-2,8.049281E-2],"categories":[],"categories_nodes":[],"categories_segments":[],"categories_sizes":[],"default_left":[0,0,0,0,0,0,0,0,0,0,0,0,0,0,0,0,0,0,0,0,0,0,0,0,0,0,0,0,0,0,0],"id":13,"left_children":[1,3,5,7,9,11,13,15,17,19,21,23,25,27,29,-1,-1,-1,-1,-1,-1,-1,-1,-1,-1,-1,-1,-1,-1,-1,-1],"loss_changes":[2.0836516E2,8.407325E1,6.972467E1,2.2187668E1,5.6343544E1,4.1513042E1,1.8442062E1,1.0142143E1,7.675887E0,3.8425705E1,1.064333E1,1.605637E1,9.222996E0,8.488907E0,2.2043594E1,0E0,0E0,0E0,0E0,0E0,0E0,0E0,0E0,0E0,0E0,0E0,0E0,0E0,0E0,0E0,0E0],"parents":[2147483647,0,0,1,1,2,2,3,3,4,4,5,5,6,6,7,7,8,8,9,9,10,10,11,11,12,12,13,13,14,14],"right_children":[2,4,6,8,10,12,14,16,18,20,22,24,26,28,30,-1,-1,-1,-1,-1,-1,-1,-1,-1,-1,-1,-1,-1,-1,-1,-1],"split_conditions":[8.18E1,9.1E1,1.04E2,1.4E0,6E0,2.0806186E0,9.6E1,9.6821785E1,6.184808E-1,2.1E0,5.2885456E0,9E1,1.1E0,5.822222E0,1.3744178E0,1.1994498E-1,2.6752282E-2,-2.7246341E-2,5.978436E-2,-3.3300187E-2,1.6219394E-1,7.7290334E-2,-2.7712721E-2,7.959107E-2,-2.1190643E-2,8.668118E-2,2.4695147E-2,3.0790845E-2,1.1962443E-1,-1.812978E-2,8.049281E-2],"split_indices":[14,96,244,20,91,493,93,193,497,22,495,96,220,115,493,0,0,0,0,0,0,0,0,0,0,0,0,0,0,0,0],"split_type":[0,0,0,0,0,0,0,0,0,0,0,0,0,0,0,0,0,0,0,0,0,0,0,0,0,0,0,0,0,0,0],"sum_hessian":[4.9352332E2,3.5544064E2,1.3808266E2,2.6220154E1,3.292205E2,7.249537E1,6.558728E1,1.6832823E1,9.387331E0,3.130049E2,1.6215578E1,4.478977E1,2.7705605E1,3.812451E1,2.746277E1,1.2195647E1,4.637176E0,6.5810547E0,2.8062766E0,3.1144412E2,1.5608038E0,1.3862695E1,2.3528826E0,3.375087E0,4.141468E1,1.7167227E1,1.0538378E1,3.8090835E0,3.431543E1,7.299573E0,2.0163198E1],"tree_param":{"num_deleted":"0","num_feature":"500","num_nodes":"31","size_leaf_vector":"1"}},{"base_weights":[2.9159652E-3,-3.9129347E-1,9.7644067E-1,-5.366501E-1,1.2033942E0,-2.5805809E-2,1.4183792E0,-6.2237656E-1,1.3396252E0,1.795704E0,1.0509801E-1,1.8586732E0,-4.8777694E-1,2.0084467E0,9.64616E-1,-3.280363E-2,1.351894E-1,1.1130315E-1,5.4865633E-3,3.0404856E-2,1.1529261E-1,-2.7316509E-2,8.677917E-2,1.0584749E-1,1.5675472E-3,-3.363523E-2,6.0251743E-2,3.230611E-2,1.0696047E-1,1.9871894E-2,9.589149E-2],"categories":[],"categories_nodes":[],"categories_segments":[],"categories_sizes":[],"default_left":[0,0,0,0,0,0,0,0,0,0,0,0,0,0,0,0,0,0,0,0,0,0,0,0,0,0,0,0,0,0,0],"id":14,"left_children":[1,3,5,7,9,11,13,15,17,19,21,23,25,27,29,-1,-1,-1,-1,-1,-1,-1,-1,-1,-1,-1,-1,-1,-1,-1,-1],"loss_changes":[1.8777754E2,8.1375275E1,6.2500458E1,5.228408E1,1.893816E1,3.933132E1,2.427185E1,3.6134735E1,1.5338869E1,1.0132507E1,1.3017596E1,4.1329155E0,1.2155332E1,6.033493E0,3.0194118E1,0E0,0E0,0E0,0E0,0E0,0E0,0E0,0E0,0E0,0E0,0E0,0E0,0E0,0E0,0E0,0E0],"parents":[2147483647,0,0,1,1,2,2,3,3,4,4,5,5,6,6,7,7,8,8,9,9,10,10,11,11,12,12,13,13,14,14],"right_children":[2,4,6,8,10,12,14,16,18,20,22,24,26,28,30,-1,-1,-1,-1,-1,-1,-1,-1,-1,-1,-1,-1,-1,-1,-1,-1],"split_conditions":[8.18E1,6E0,2.06E0,3.72E1,2E-1,9.2E1,1.06E2,4.41E1,8.0898494E-1,1.512223E0,5E-1,7.311E0,1.04E2,8.582861E0,8.98E1,-3.280363E-2,1.351894E-1,1.1130315E-1,5.4865633E-3,3.0404856E-2,1.1529261E-1,-2.7316509E-2,8.677917E-2,1.0584749E-1,1.5675472E-3,-3.363523E-2,6.0251743E-2,3.230611E-2,1.0696047E-1,1.9871894E-2,9.589149E-2],"split_indices":[14,90,58,97,221,93,96,82,490,490,221,386,0,496,14,0,0,0,0,0,0,0,0,0,0,0,0,0,0,0,0],"split_type":[0,0,0,0,0,0,0,0,0,0,0,0,0,0,0,0,0,0,0,0,0,0,0,0,0,0,0,0,0,0,0],"sum_hessian":[4.8729816E2,3.4727438E2,1.4002377E2,3.1887247E2,2.8401926E1,4.313716E1,9.688662E1,3.0557895E2,1.3293515E1,1.803869E1,1.0363235E1,7.897641E0,3.523952E1,4.0628143E1,5.6258476E1,3.03309E2,2.2699401E0,7.2547445E0,6.038771E0,6.078997E0,1.1959693E1,7.8799043E0,2.483332E0,6.7807417E0,1.1168993E0,3.231225E1,2.9272723E0,4.0784802E0,3.6549664E1,3.615976E1,2.0098715E1],"tree_param":{"num_deleted":"0","num_feature":"500","num_nodes":"31","size_leaf_vector":"1"}},{"base_weights":[3.7850828E-3,-3.5644454E-1,1.0088905E0,-4.923763E-1,1.4840165E0,1.7077831E0,2.122461E-1,1.0335455E0,-6.106138E-1,-3.9940953E-2,1.6940205E0,7.91335E-1,2.071988E0,-4.3341035E-1,1.0273914E0,7.799699E-2,-2.6619688E-2,-3.3573776E-2,5.9903175E-2,-3.7322845E-2,4.915313E-2,9.4239786E-2,-3.2729998E-3,3.834633E-3,9.9951975E-2,1.1251751E-1,2.9069437E-2,7.360718E-2,-3.4421004E-2,-1.03633255E-2,7.77384E-2],"categories":[],"categories_nodes":[],"categories_segments":[],"categories_sizes":[],"default_left":[0,0,0,0,0,0,0,0,0,0,0,0,0,0,0,0,0,0,0,0,0,0,0,0,0,0,0,0,0,0,0],"id":15,"left_children":[1,3,5,7,9,11,13,15,17,19,21,23,25,27,29,-1,-1,-1,-1,-1,-1,-1,-1,-1,-1,-1,-1,-1,-1,-1,-1],"loss_changes":[1.7483218E2,8.966304E1,7.05695E1,6.0491165E1,7.9719543E0,2.096402E1,3.2380367E1,2.0804035E1,3.4769264E1,3.6019053E0,7.4173393E0,1.78653E1,1.1411819E1,1.780852E1,1.797804E1,0E0,0E0,0E0,0E0,0E0,0E0,0E0,0E0,0E0,0E0,0E0,0E0,0E0,0E0,0E0,0E0],"parents":[2147483647,0,0,1,1,2,2,3,3,4,4,5,5,6,6,7,7,8,8,9,9,10,10,11,11,12,12,13,13,14,14],"right_children":[2,4,6,8,10,12,14,16,18,20,22,24,26,28,30,-1,-1,-1,-1,-1,-1,-1,-1,-1,-1,-1,-1,-1,-1,-1,-1],"split_conditions":[2.48E2,8E0,7E-1,9.1E1,2.5E1,2.87E0,1.33E2,6.7E0,3.72E1,9.3E1,3.209356E-2,1.2470088E1,5.1062503E0,9.1E1,2.68E1,7.799699E-2,-2.6619688E-2,-3.3573776E-2,5.9903175E-2,-3.7322845E-2,4.915313E-2,9.4239786E-2,-3.2729998E-3,3.834633E-3,9.9951975E-2,1.1251751E-1,2.9069437E-2,7.360718E-2,-3.4421004E-2,-1.03633255E-2,7.77384E-2],"split_indices":[45,91,20,96,1,58,244,18,97,0,426,400,106,93,5,0,0,0,0,0,0,0,0,0,0,0,0,0,0,0,0],"split_type":[0,0,0,0,0,0,0,0,0,0,0,0,0,0,0,0,0,0,0,0,0,0,0,0,0,0,0,0,0,0,0],"sum_hessian":[4.8087692E2,3.5447757E2,1.2639934E2,3.307795E2,2.369806E1,6.6721306E1,5.9678032E1,2.3230864E1,3.0754865E2,2.9682038E0,2.0729856E1,1.9877182E1,4.6844128E1,3.3562393E1,2.6115637E1,1.7389256E1,5.8416085E0,2.9814487E2,9.403785E0,1.915578E0,1.0526257E0,1.8637794E1,2.0920613E0,1.3155877E1,6.721305E0,4.1382668E1,5.4614587E0,3.398003E0,3.016439E1,7.998074E0,1.8117563E1],"tree_param":{"num_deleted":"0","num_feature":"500","num_nodes":"31","size_leaf_vector":"1"}},{"base_weights":[4.005108E-3,1.3354633E0,-2.5437963E-1,-6.8105185E-1,1.5575756E0,-4.8617548E-1,1.0166428E0,2.1406114E-2,-4.450808E-2,9.095021E-1,1.9753311E0,-6.165231E-1,5.192732E-1,5.1989187E-3,1.7084614E0,2.0936204E-2,1.0256957E-1,1.0897775E-1,3.9639845E-2,-3.3263817E-2,6.0388803E-2,-1.8669074E-2,6.392502E-2,5.919332E-2,-2.574912E-2,1.368431E-2,1.03942454E-1],"categories":[],"categories_nodes":[],"categories_segments":[],"categories_sizes":[],"default_left":[0,0,0,0,0,0,0,0,0,0,0,0,0,0,0,0,0,0,0,0,0,0,0,0,0,0,0],"id":16,"left_children":[1,3,5,7,9,11,13,-1,-1,15,17,19,21,23,25,-1,-1,-1,-1,-1,-1,-1,-1,-1,-1,-1,-1],"loss_changes":[1.6405081E2,3.577185E1,1.1815466E2,2.3259153E0,1.718573E1,4.467592E1,4.332022E1,0E0,0E0,1.5580551E1,8.36174E0,2.7491035E1,2.7168837E1,1.6645296E1,1.8970383E1,0E0,0E0,0E0,0E0,0E0,0E0,0E0,0E0,0E0,0E0,0E0,0E0],"parents":[2147483647,0,0,1,1,2,2,3,3,4,4,5,5,6,6,9,9,10,10,11,11,12,12,13,13,14,14],"right_children":[2,4,6,8,10,12,14,-1,-1,16,18,20,22,24,26,-1,-1,-1,-1,-1,-1,-1,-1,-1,-1,-1,-1],"split_conditions":[9.3E1,4.2E1,1.033E1,6.7E1,9.72431E0,9.9E0,1.58E1,2.1406114E-2,-4.450808E-2,3.6E1,2.08E1,8E0,1.8E1,4E-1,1.76E2,2.0936204E-2,1.0256957E-1,1.0897775E-1,3.9639845E-2,-3.3263817E-2,6.0388803E-2,-1.8669074E-2,6.392502E-2,5.919332E-2,-2.574912E-2,1.368431E-2,1.03942454E-1],"split_indices":[93,93,58,46,400,15,30,0,0,1,375,90,39,20,245,0,0,0,0,0,0,0,0,0,0,0,0],"split_type":[0,0,0,0,0,0,0,0,0,0,0,0,0,0,0,0,0,0,0,0,0,0,0,0,0,0,0],"sum_hessian":[4.7486493E2,7.6498604E1,3.9836633E2,7.3850355E0,6.911357E1,3.3744424E2,6.092208E1,1.0052993E0,6.379736E0,2.833459E1,4.077898E1,2.990605E2,3.838376E1,2.5154104E1,3.5767975E1,2.0773111E1,7.561479E0,3.405462E1,6.7243614E0,2.918951E2,7.1653867E0,1.7875273E1,2.0508486E1,7.311428E0,1.7842676E1,7.6957555E0,2.807222E1],"tree_param":{"num_deleted":"0","num_feature":"500","num_nodes":"27","size_leaf_vector":"1"}},{"base_weights":[4.20539E-3,-3.1956375E-1,9.931864E-1,-4.9242124E-1,1.058441E0,1.3315369E0,3.751035E-2,8.08735E-1,-6.0428303E-1,1.3583328E-1,2.1064777E0,1.4899368E0,-1.2756112E-1,-7.325253E-1,9.380117E-1,6.8536095E-2,-1.9476578E-2,-3.175729E-2,1.3603452E-1,-2.5893325E-2,7.537296E-2,1.7748122E-1,6.4888865E-2,8.118587E-2,2.3435587E-3,-3.8580384E-2,4.9779333E-2,-4.593314E-2,4.2540606E-2,9.876423E-3,8.393255E-2],"categories":[],"categories_nodes":[],"categories_segments":[],"categories_sizes":[],"default_left":[0,0,0,0,0,0,0,0,0,0,0,0,0,0,0,0,0,0,0,0,0,0,0,0,0,0,0,0,0,0,0],"id":17,"left_children":[1,3,5,7,9,11,13,15,17,19,21,23,25,27,29,-1,-1,-1,-1,-1,-1,-1,-1,-1,-1,-1,-1,-1,-1,-1,-1],"loss_changes":[1.5074747E2,8.500696E1,3.749517E1,4.645851E1,3.8246376E1,2.000241E1,2.2452717E1,1.765933E1,3.1631447E1,2.0741817E1,1.7087059E1,1.4867645E1,7.5069404E0,5.9337673E0,7.844E0,0E0,0E0,0E0,0E0,0E0,0E0,0E0,0E0,0E0,0E0,0E0,0E0,0E0,0E0,0E0,0E0],"parents":[2147483647,0,0,1,1,2,2,3,3,4,4,5,5,6,6,7,7,8,8,9,9,10,10,11,11,12,12,13,13,14,14],"right_children":[2,4,6,8,10,12,14,16,18,20,22,24,26,28,30,-1,-1,-1,-1,-1,-1,-1,-1,-1,-1,-1,-1,-1,-1,-1,-1],"split_conditions":[3E0,1.249E1,5.7E1,9.2E1,2.0567799E0,6.59E1,9.923968E-2,1.4E0,5.7E0,3.05E2,1.36E2,2.26E1,1.02E1,2.4640958E0,8.37E1,6.8536095E-2,-1.9476578E-2,-3.175729E-2,1.3603452E-1,-2.5893325E-2,7.537296E-2,1.7748122E-1,6.4888865E-2,8.118587E-2,2.3435587E-3,-3.8580384E-2,4.9779333E-2,-4.593314E-2,4.2540606E-2,9.876423E-3,8.393255E-2],"split_indices":[91,58,395,96,166,387,455,20,54,45,10,16,382,490,14,0,0,0,0,0,0,0,0,0,0,0,0,0,0,0,0],"split_type":[0,0,0,0,0,0,0,0,0,0,0,0,0,0,0,0,0,0,0,0,0,0,0,0,0,0,0,0,0,0,0],"sum_hessian":[4.6879816E2,3.536864E2,1.1511174E2,3.148359E2,3.8850487E1,8.472289E1,3.0388851E1,2.4430851E1,2.9040506E2,2.1262386E1,1.75881E1,7.6407005E1,8.31589E0,1.6481632E1,1.3907218E1,1.6532969E1,7.897881E0,2.8853583E2,1.8692483E0,1.4821221E1,6.4411654E0,5.099183E0,1.2488917E1,6.981003E1,6.596977E0,5.4841247E0,2.8317661E0,1.5123505E1,1.3581282E0,7.587758E0,6.31946E0],"tree_param":{"num_deleted":"0","num_feature":"500","num_nodes":"31","size_leaf_vector":"1"}},{"base_weights":[4.7390973E-3,-2.669464E-1,1.1348172E0,-5.275513E-1,6.6116035E-1,1.6049079E0,4.74776E-2,8.038359E-1,-6.350693E-1,1.0077938E-1,1.4532268E0,1.9119394E0,6.3771516E-1,-5.232856E-1,1.3191707E0,1.4892677E-2,1.11177206E-1,-3.5047557E-2,3.2631345E-2,-1.258758E-2,7.528814E-2,3.7515685E-2,1.0667453E-1,1.0722049E-1,4.6135463E-2,-3.7271854E-2,5.5533446E-2,-4.1296016E-2,5.380655E-2,9.2376076E-2,-9.744331E-3],"categories":[],"categories_nodes":[],"categories_segments":[],"categories_sizes":[],"default_left":[0,0,0,0,0,0,0,0,0,0,0,0,0,0,0,0,0,0,0,0,0,0,0,0,0,0,0,0,0,0,0],"id":18,"left_children":[1,3,5,7,9,11,13,15,17,19,21,23,25,27,29,-1,-1,-1,-1,-1,-1,-1,-1,-1,-1,-1,-1,-1,-1,-1,-1],"loss_changes":[1.4264198E2,9.0943535E1,4.595021E1,4.245301E1,3.6498512E1,1.7440323E1,2.1165745E1,1.5381997E1,2.3504463E1,2.4859827E1,1.4720871E1,8.874527E0,1.171398E1,1.0659906E1,7.577921E0,0E0,0E0,0E0,0E0,0E0,0E0,0E0,0E0,0E0,0E0,0E0,0E0,0E0,0E0,0E0,0E0],"parents":[2147483647,0,0,1,1,2,2,3,3,4,4,5,5,6,6,7,7,8,8,9,9,10,10,11,11,12,12,13,13,14,14],"right_children":[2,4,6,8,10,12,14,16,18,20,22,24,26,28,30,-1,-1,-1,-1,-1,-1,-1,-1,-1,-1,-1,-1,-1,-1,-1,-1],"split_conditions":[9.7E1,8.37E1,1.4E0,9.1E1,1.4E1,1.1538461E0,3E0,1.27E2,6E0,3.2E1,1.39E0,7.71E1,1.6E1,5.524145E-2,9.6E1,1.4892677E-2,1.11177206E-1,-3.5047557E-2,3.2631345E-2,-1.258758E-2,7.528814E-2,3.7515685E-2,1.0667453E-1,1.0722049E-1,4.6135463E-2,-3.7271854E-2,5.5533446E-2,-4.1296016E-2,5.380655E-2,9.2376076E-2,-9.744331E-3],"split_indices":[0,14,20,96,4,117,91,46,91,1,48,307,39,459,93,0,0,0,0,0,0,0,0,0,0,0,0,0,0,0,0],"split_type":[0,0,0,0,0,0,0,0,0,0,0,0,0,0,0,0,0,0,0,0,0,0,0,0,0,0,0,0,0,0,0],"sum_hessian":[4.6260605E2,3.735609E2,8.9045135E1,2.9200098E2,8.155993E1,6.1835663E1,2.720947E1,2.1335E1,2.70666E2,4.8426083E1,3.313385E1,4.619458E1,1.5641082E1,1.9186617E1,8.022854E0,1.6621069E1,4.713931E0,2.579255E2,1.2740467E1,3.936871E1,9.057373E0,1.732991E1,1.5803938E1,3.6458927E1,9.735652E0,3.8386948E0,1.1802387E1,1.6540506E1,2.646111E0,5.7841506E0,2.238703E0],"tree_param":{"num_deleted":"0","num_feature":"500","num_nodes":"31","size_leaf_vector":"1"}},{"base_weights":[5.258718E-3,6.208244E-1,-4.6794313E-1,1.1385492E0,-1.670248E-1,-6.474639E-1,4.294694E-1,1.3496081E0,2.87119E-1,-4.4595686E-1,1.1779726E0,-6.877168E-1,1.7427158E0,-1.2487666E-2,1.9377443E0,4.3635592E-2,8.8996954E-2,6.0811203E-2,-1.7114501E-2,-2.9101765E-2,7.723111E-2,-2.0853108E-2,1.0164465E-1,-3.6310937E-2,6.817048E-2,1.4367627E-1,-1.0078675E-2,4.9626734E-2,-2.5903333E-2,1.1677233E-1,-2.7809745E-2],"categories":[],"categories_nodes":[],"categories_segments":[],"categories_sizes":[],"default_left":[0,0,0,0,0,0,0,0,0,0,0,0,0,0,0,0,0,0,0,0,0,0,0,0,0,0,0,0,0,0,0],"id":19,"left_children":[1,3,5,7,9,11,13,15,17,19,21,23,25,27,29,-1,-1,-1,-1,-1,-1,-1,-1,-1,-1,-1,-1,-1,-1,-1,-1],"loss_changes":[1.3344025E2,8.140051E1,4.2005604E1,2.1226028E1,3.04726E1,2.2002556E1,2.9205727E1,1.8171066E1,1.5130841E1,1.9004057E1,1.9918999E1,1.784037E1,9.075149E0,1.822215E1,1.11451E1,0E0,0E0,0E0,0E0,0E0,0E0,0E0,0E0,0E0,0E0,0E0,0E0,0E0,0E0,0E0,0E0],"parents":[2147483647,0,0,1,1,2,2,3,3,4,4,5,5,6,6,7,7,8,8,9,9,10,10,11,11,12,12,13,13,14,14],"right_children":[2,4,6,8,10,12,14,16,18,20,22,24,26,28,30,-1,-1,-1,-1,-1,-1,-1,-1,-1,-1,-1,-1,-1,-1,-1,-1],"split_conditions":[9.2E1,1.34E1,2.55E2,2.9E1,1.013E1,5.4E0,1.2E0,1.04E2,5.2E0,3.71E1,1.1E-1,8.9E1,7E-1,4E-1,2.4E0,4.3635592E-2,8.8996954E-2,6.0811203E-2,-1.7114501E-2,-2.9101765E-2,7.723111E-2,-2.0853108E-2,1.0164465E-1,-3.6310937E-2,6.817048E-2,1.4367627E-1,-1.0078675E-2,4.9626734E-2,-2.5903333E-2,1.1677233E-1,-2.7809745E-2],"split_indices":[393,16,45,79,58,54,42,244,16,97,71,300,317,20,20,0,0,0,0,0,0,0,0,0,0,0,0,0,0,0,0],"split_type":[0,0,0,0,0,0,0,0,0,0,0,0,0,0,0,0,0,0,0,0,0,0,0,0,0,0,0,0,0,0,0],"sum_hessian":[4.5610867E2,1.9809908E2,2.5800958E2,1.1927435E2,7.882472E1,2.1523244E2,4.277715E1,9.511214E1,2.4162216E1,6.583912E1,1.2985601E1,2.1236824E2,2.8642051E0,3.3850067E1,8.92708E0,4.6551453E1,4.8560684E1,9.381436E0,1.4780779E1,6.22886E1,3.5505195E0,4.7100916E0,8.27551E0,2.0908932E2,3.278909E0,1.5087669E0,1.3554381E0,1.1006827E1,2.284324E1,7.754103E0,1.1729766E0],"tree_param":{"num_deleted":"0","num_feature":"500","num_nodes":"31","size_leaf_vector":"1"}},{"base_weights":[5.691926E-3,1.1597806E0,-2.3264366E-1,1.4009544E0,-2.350892E-1,-4.5168856E-1,8.46154E-1,1.005486E0,1.8457885E0,1.1651073E0,-8.280252E-1,-5.704211E-1,5.931499E-1,3.1900257E-1,1.8116868E0,3.057086E-2,8.342665E-2,-1.0928261E-2,9.65538E-2,-2.7227595E-2,9.51091E-2,-4.5615327E-2,-3.5119175E-3,-3.0368635E-2,1.05556265E-1,6.51893E-2,-1.2998337E-2,6.7116685E-2,-6.9581545E-3,1.1411189E-1,3.0419728E-2],"categories":[],"categories_nodes":[],"categories_segments":[],"categories_sizes":[],"default_left":[0,0,0,0,0,0,0,0,0,0,0,0,0,0,0,0,0,0,0,0,0,0,0,0,0,0,0,0,0,0,0],"id":20,"left_children":[1,3,5,7,9,11,13,15,17,19,21,23,25,27,29,-1,-1,-1,-1,-1,-1,-1,-1,-1,-1,-1,-1,-1,-1,-1,-1],"loss_changes":[1.2442459E2,2.6376175E1,8.8983864E1,9.782227E0,1.1151617E1,3.9083134E1,3.1808586E1,8.704433E0,5.6931534E0,6.159132E0,5.237789E-1,2.9121513E1,1.9957031E1,2.0053293E1,1.12140045E1,0E0,0E0,0E0,0E0,0E0,0E0,0E0,0E0,0E0,0E0,0E0,0E0,0E0,0E0,0E0,0E0],"parents":[2147483647,0,0,1,1,2,2,3,3,4,4,5,5,6,6,7,7,8,8,9,9,10,10,11,11,12,12,13,13,14,14],"right_children":[2,4,6,8,10,12,14,16,18,20,22,24,26,28,30,-1,-1,-1,-1,-1,-1,-1,-1,-1,-1,-1,-1,-1,-1,-1,-1],"split_conditions":[9.3E1,1E0,1.033E1,9.0805756E1,3.52E0,5E0,4.6E0,3.75E1,6.44E0,9E1,5.9E0,3.39E1,8E-1,1.06E2,8.5E-1,3.057086E-2,8.342665E-2,-1.0928261E-2,9.65538E-2,-2.7227595E-2,9.51091E-2,-4.5615327E-2,-3.5119175E-3,-3.0368635E-2,1.05556265E-1,6.51893E-2,-1.2998337E-2,6.7116685E-2,-6.9581545E-3,1.1411189E-1,3.0419728E-2],"split_indices":[93,320,58,144,313,90,166,297,209,0,120,82,20,96,17,0,0,0,0,0,0,0,0,0,0,0,0,0,0,0,0],"split_type":[0,0,0,0,0,0,0,0,0,0,0,0,0,0,0,0,0,0,0,0,0,0,0,0,0,0,0,0,0,0,0],"sum_hessian":[4.5037277E2,7.642672E1,3.7394604E2,6.515672E1,1.1269994E1,3.1131607E2,6.2629986E1,3.6218216E1,2.8938507E1,3.0656338E0,8.204361E0,2.7995663E2,3.135944E1,4.1372337E1,2.1257645E1,2.3922487E1,1.2295729E1,1.0861429E0,2.7852364E1,1.0022029E0,2.0634308E0,7.199698E0,1.0046625E0,2.7691425E2,3.042368E0,1.6820171E1,1.4539268E1,1.2197946E1,2.9174393E1,1.4637102E1,6.6205435E0],"tree_param":{"num_deleted":"0","num_feature":"500","num_nodes":"31","size_leaf_vector":"1"}},{"base_weights":[6.2535824E-3,-3.1913653E-1,8.1550145E-1,-5.158822E-1,7.5761634E-1,1.3376521E0,1.7861171E-1,-7.122141E-1,1.6911763E-1,1.9495076E0,1.4766458E-1,9.296307E-1,1.9089308E0,-7.4842805E-1,6.1863106E-1,1.6388738E-3,-4.2219464E-2,6.545724E-2,-1.44239515E-2,1.8846802E-2,1.1584647E-1,5.060007E-2,-1.9724973E-2,7.548633E-2,8.027816E-3,1.16124295E-1,6.26581E-2,-4.391734E-2,1.8475533E-2,-4.8096976E-3,6.0102846E-2],"categories":[],"categories_nodes":[],"categories_segments":[],"categories_sizes":[],"default_left":[0,0,0,0,0,0,0,0,0,0,0,0,0,0,0,0,0,0,0,0,0,0,0,0,0,0,0,0,0,0,0],"id":21,"left_children":[1,3,5,7,9,11,13,15,17,19,21,23,25,27,29,-1,-1,-1,-1,-1,-1,-1,-1,-1,-1,-1,-1,-1,-1,-1,-1],"loss_changes":[1.1753073E2,6.783275E1,4.2327324E1,3.6400368E1,3.5762505E1,1.4584099E1,2.445569E1,2.0692635E1,3.2149014E1,8.778408E0,1.627757E1,1.8892208E1,4.762039E0,3.1399689E0,1.6978275E1,0E0,0E0,0E0,0E0,0E0,0E0,0E0,0E0,0E0,0E0,0E0,0E0,0E0,0E0,0E0,0E0],"parents":[2147483647,0,0,1,1,2,2,3,3,4,4,5,5,6,6,7,7,8,8,9,9,10,10,11,11,12,12,13,13,14,14],"right_children":[2,4,6,8,10,12,14,16,18,20,22,24,26,28,30,-1,-1,-1,-1,-1,-1,-1,-1,-1,-1,-1,-1,-1,-1,-1,-1],"split_conditions":[2.48E2,9.7E1,7E-1,8E1,8.589744E-2,1.2470088E1,9.6E1,5.9E1,3.5E1,5.3E1,9.7E0,9.6E1,5.543997E-1,5.3023257E0,2.6E1,1.6388738E-3,-4.2219464E-2,6.545724E-2,-1.44239515E-2,1.8846802E-2,1.1584647E-1,5.060007E-2,-1.9724973E-2,7.548633E-2,8.027816E-3,1.16124295E-1,6.26581E-2,-4.391734E-2,1.8475533E-2,-4.8096976E-3,6.0102846E-2],"split_indices":[45,0,20,98,125,400,244,94,64,98,16,93,428,190,305,0,0,0,0,0,0,0,0,0,0,0,0,0,0,0,0],"split_type":[0,0,0,0,0,0,0,0,0,0,0,0,0,0,0,0,0,0,0,0,0,0,0,0,0,0,0,0,0,0,0],"sum_hessian":[4.4435135E2,3.1735275E2,1.2699859E2,2.6876465E2,4.858813E1,6.918079E1,5.7817795E1,2.0886179E2,5.9902855E1,1.5704397E1,3.288373E1,4.1889534E1,2.7291264E1,1.8384384E1,3.943341E1,3.158548E1,1.772763E2,1.6624565E1,4.327829E1,3.3579977E0,1.23464E1,1.2341649E1,2.0542084E1,2.3329533E1,1.856E1,1.5177855E1,1.2113409E1,1.6662327E1,1.7220587E0,1.8096426E1,2.1336985E1],"tree_param":{"num_deleted":"0","num_feature":"500","num_nodes":"31","size_leaf_vector":"1"}},{"base_weights":[6.458675E-3,5.566136E-1,-4.38993E-1,1.0043128E0,-1.559484E-1,-6.1834085E-1,3.8824642E-1,1.3672539E0,5.6688994E-1,7.672591E-1,-5.119532E-1,-6.607494E-1,1.6602628E0,-2.0201663E-2,1.6834517E0,7.797802E-2,2.4229713E-2,1.2190997E-2,7.790498E-2,-1.0247485E-3,7.747748E-2,-3.2795876E-2,6.0822137E-2,2.7003404E-4,-3.919475E-2,1.4612947E-1,1.9815906E-3,-2.1195179E-2,5.5310953E-2,1.1054485E-1,-3.576216E-3],"categories":[],"categories_nodes":[],"categories_segments":[],"categories_sizes":[],"default_left":[0,0,0,0,0,0,0,0,0,0,0,0,0,0,0,0,0,0,0,0,0,0,0,0,0,0,0,0,0,0,0],"id":22,"left_children":[1,3,5,7,9,11,13,15,17,19,21,23,25,27,29,-1,-1,-1,-1,-1,-1,-1,-1,-1,-1,-1,-1,-1,-1,-1,-1],"loss_changes":[1.0808035E2,6.3103096E1,3.639771E1,1.8484589E1,2.5700802E1,2.048848E1,2.3330679E1,1.0378151E1,1.7783733E1,1.34844885E1,1.4775078E1,1.6224007E1,7.9675827E0,1.6142569E1,9.94199E0,0E0,0E0,0E0,0E0,0E0,0E0,0E0,0E0,0E0,0E0,0E0,0E0,0E0,0E0,0E0,0E0],"parents":[2147483647,0,0,1,1,2,2,3,3,4,4,5,5,6,6,7,7,8,8,9,9,10,10,11,11,12,12,13,13,14,14],"right_children":[2,4,6,8,10,12,14,16,18,20,22,24,26,28,30,-1,-1,-1,-1,-1,-1,-1,-1,-1,-1,-1,-1,-1,-1,-1,-1],"split_conditions":[9.2E1,1.34E1,2.55E2,1.13E2,3E-2,5.4E0,1.2E0,2.8E1,1.03E2,3.76E0,3.71E1,5.9E1,7E-1,6.9E0,1.4868106E-1,7.797802E-2,2.4229713E-2,1.2190997E-2,7.790498E-2,-1.0247485E-3,7.747748E-2,-3.2795876E-2,6.0822137E-2,2.7003404E-4,-3.919475E-2,1.4612947E-1,1.9815906E-3,-2.1195179E-2,5.5310953E-2,1.1054485E-1,-3.576216E-3],"split_indices":[393,16,45,96,21,54,42,79,0,58,97,94,17,315,134,0,0,0,0,0,0,0,0,0,0,0,0,0,0,0,0],"split_type":[0,0,0,0,0,0,0,0,0,0,0,0,0,0,0,0,0,0,0,0,0,0,0,0,0,0,0,0,0,0,0],"sum_hessian":[4.3902582E2,1.9631612E2,2.427097E2,1.20313995E2,7.600212E1,1.9967264E2,4.3037064E1,6.459343E1,5.5720562E1,2.0829899E1,5.5172222E1,1.9672134E2,2.9512882E0,3.3467392E1,9.569672E0,5.2408268E1,1.2185164E1,4.2963295E1,1.2757265E1,1.0863913E1,9.965987E0,5.1502865E1,3.6693554E0,3.0841564E1,1.6587978E2,1.2074375E0,1.7438507E0,2.5096603E1,8.370789E0,7.1584606E0,2.4112115E0],"tree_param":{"num_deleted":"0","num_feature":"500","num_nodes":"31","size_leaf_vector":"1"}},{"base_weights":[6.9465707E-3,-2.80142E-1,8.2413787E-1,-4.2046317E-1,1.0096325E0,1.093189E0,7.4159713E-3,-5.5557823E-1,5.8498025E-1,1.3721913E-1,1.8508067E0,1.2178348E0,-1.3101384E-1,-7.1136665E-1,7.7736163E-1,-3.0842653E-2,6.08516E-2,-8.939647E-3,5.5684596E-2,6.4167336E-2,-2.6613498E-2,1.1621048E-1,3.505792E-2,6.7315154E-2,9.401283E-3,-2.7655397E-2,6.7210935E-2,-4.500163E-2,3.3603884E-2,1.1584095E-2,7.8322455E-2],"categories":[],"categories_nodes":[],"categories_segments":[],"categories_sizes":[],"default_left":[0,0,0,0,0,0,0,0,0,0,0,0,0,0,0,0,0,0,0,0,0,0,0,0,0,0,0,0,0,0,0],"id":23,"left_children":[1,3,5,7,9,11,13,15,17,19,21,23,25,27,29,-1,-1,-1,-1,-1,-1,-1,-1,-1,-1,-1,-1,-1,-1,-1,-1],"loss_changes":[1.0214054E2,5.873738E1,2.4863045E1,3.9897297E1,2.3162106E1,1.3149826E1,1.6631933E1,2.8697525E1,1.4330578E1,1.3530674E1,7.1681137E0,9.981567E0,6.204298E0,4.6631107E0,5.882945E0,0E0,0E0,0E0,0E0,0E0,0E0,0E0,0E0,0E0,0E0,0E0,0E0,0E0,0E0,0E0,0E0],"parents":[2147483647,0,0,1,1,2,2,3,3,4,4,5,5,6,6,7,7,8,8,9,9,10,10,11,11,12,12,13,13,14,14],"right_children":[2,4,6,8,10,12,14,16,18,20,22,24,26,28,30,-1,-1,-1,-1,-1,-1,-1,-1,-1,-1,-1,-1,-1,-1,-1,-1],"split_conditions":[3E0,1.483E1,5.7E1,5E0,2.0051546E0,6.59E1,9.923968E-2,3.72E1,1.512223E0,9.5E1,8.974359E-2,2.03E1,1.43E2,2.4640958E0,5E0,-3.0842653E-2,6.08516E-2,-8.939647E-3,5.5684596E-2,6.4167336E-2,-2.6613498E-2,1.1621048E-1,3.505792E-2,6.7315154E-2,9.401283E-3,-2.7655397E-2,6.7210935E-2,-4.500163E-2,3.3603884E-2,1.1584095E-2,7.8322455E-2],"split_indices":[91,58,395,90,166,387,455,97,490,93,121,16,53,490,90,0,0,0,0,0,0,0,0,0,0,0,0,0,0,0,0],"split_type":[0,0,0,0,0,0,0,0,0,0,0,0,0,0,0,0,0,0,0,0,0,0,0,0,0,0,0,0,0,0,0],"sum_hessian":[4.333859E2,3.212014E2,1.1218451E2,2.9029294E2,3.0908455E1,8.4130905E1,2.8053596E1,2.5629813E2,3.3994812E1,1.5743457E1,1.5164998E1,7.6361176E1,7.769737E0,1.4548204E1,1.3505392E1,2.4836476E2,7.9333615E0,1.4176857E1,1.9817953E1,5.4671316E0,1.0276325E1,1.0018078E1,5.1469207E0,6.761847E1,8.742703E0,6.527233E0,1.2425038E0,1.3109795E1,1.4384098E0,8.74887E0,4.756522E0],"tree_param":{"num_deleted":"0","num_feature":"500","num_nodes":"31","size_leaf_vector":"1"}},{"base_weights":[7.2953785E-3,4.6644777E-1,-4.7854212E-1,9.22106E-1,-9.1320075E-2,1.2187814E0,-5.8737683E-1,5.7443106E-1,1.3359995E0,-2.1019046E-1,2.0872095E0,1.140516E-1,1.9975401E0,-6.7775863E-1,5.4264235E-1,6.965431E-2,1.1603129E-2,5.138718E-2,9.342273E-2,-2.7515663E-2,1.8657153E-2,4.719684E-2,1.4233062E-1,-3.914332E-2,6.1966877E-2,1.8606614E-2,1.21676974E-1,3.1303E-2,-3.6581334E-2,-3.583182E-2,5.3312372E-2],"categories":[],"categories_nodes":[],"categories_segments":[],"categories_sizes":[],"default_left":[0,0,0,0,0,0,0,0,0,0,0,0,0,0,0,0,0,0,0,0,0,0,0,0,0,0,0,0,0,0,0],"id":24,"left_children":[1,3,5,7,9,11,13,15,17,19,21,23,25,27,29,-1,-1,-1,-1,-1,-1,-1,-1,-1,-1,-1,-1,-1,-1,-1,-1],"loss_changes":[9.586329E1,5.623362E1,3.928873E1,1.6743004E1,2.6398237E1,1.087677E1,2.0477966E1,1.8704151E1,7.073807E0,1.9245487E1,1.8955841E0,7.4270487E0,4.4166756E0,1.3294289E1,1.0745388E1,0E0,0E0,0E0,0E0,0E0,0E0,0E0,0E0,0E0,0E0,0E0,0E0,0E0,0E0,0E0,0E0],"parents":[2147483647,0,0,1,1,2,2,3,3,4,4,5,5,6,6,7,7,8,8,9,9,10,10,11,11,12,12,13,13,14,14],"right_children":[2,4,6,8,10,12,14,16,18,20,22,24,26,28,30,-1,-1,-1,-1,-1,-1,-1,-1,-1,-1,-1,-1,-1,-1,-1,-1],"split_conditions":[1.34E1,9.2E1,5.4E1,9.1E1,5.4E0,6.46E0,4E0,5.7E1,8E-1,8.5E1,2.3E0,3.66E1,1.35E2,8.6E1,6.41E1,6.965431E-2,1.1603129E-2,5.138718E-2,9.342273E-2,-2.7515663E-2,1.8657153E-2,4.719684E-2,1.4233062E-1,-3.914332E-2,6.1966877E-2,1.8606614E-2,1.21676974E-1,3.1303E-2,-3.6581334E-2,-3.583182E-2,5.3312372E-2],"split_indices":[16,393,10,0,54,58,91,94,42,0,57,97,246,96,14,0,0,0,0,0,0,0,0,0,0,0,0,0,0,0,0],"split_type":[0,0,0,0,0,0,0,0,0,0,0,0,0,0,0,0,0,0,0,0,0,0,0,0,0,0,0,0,0,0,0],"sum_hessian":[4.2773804E2,2.1992888E2,2.0780916E2,1.2068459E2,9.9244286E1,1.1907542E1,1.9590161E2,6.6886826E1,5.3797775E1,9.496603E1,4.278257E0,5.397386E0,6.5101566E0,1.817639E2,1.4137715E1,1.881893E1,4.8067894E1,3.592804E1,1.7869734E1,6.0024376E1,3.4941654E1,2.6027875E0,1.6754694E0,3.172787E0,2.224599E0,1.7689642E0,4.741193E0,6.790273E0,1.7497363E2,4.0437565E0,1.0093959E1],"tree_param":{"num_deleted":"0","num_feature":"500","num_nodes":"31","size_leaf_vector":"1"}},{"base_weights":[7.956228E-3,-2.9430473E-1,7.1333516E-1,3.7549847E-1,-5.7309437E-1,1.1625049E0,1.5329888E-1,-6.3968584E-2,1.4088137E0,-6.64153E-1,6.933992E-1,9.301436E-1,2.0767062E0,-7.386325E-1,5.428248E-1,-1.8478485E-2,5.5152167E-2,8.384257E-2,8.690484E-4,-3.689142E-2,2.30129E-2,7.188762E-2,-1.3061847E-2,7.1191266E-2,2.198751E-2,2.093002E-2,1.08883135E-1,-4.3253697E-2,1.690474E-2,-5.0071836E-3,5.1893055E-2],"categories":[],"categories_nodes":[],"categories_segments":[],"categories_sizes":[],"default_left":[0,0,0,0,0,0,0,0,0,0,0,0,0,0,0,0,0,0,0,0,0,0,0,0,0,0,0,0,0,0,0],"id":25,"left_children":[1,3,5,7,9,11,13,15,17,19,21,23,25,27,29,-1,-1,-1,-1,-1,-1,-1,-1,-1,-1,-1,-1,-1,-1,-1,-1],"loss_changes":[9.044155E1,5.5669044E1,3.1829567E1,3.9998093E1,2.4688553E1,1.3035393E1,2.0476725E1,2.2738789E1,9.767223E0,1.6618256E1,1.0736496E1,1.3413212E1,1.3428688E0,2.741436E0,1.3088833E1,0E0,0E0,0E0,0E0,0E0,0E0,0E0,0E0,0E0,0E0,0E0,0E0,0E0,0E0,0E0,0E0],"parents":[2147483647,0,0,1,1,2,2,3,3,4,4,5,5,6,6,7,7,8,8,9,9,10,10,11,11,12,12,13,13,14,14],"right_children":[2,4,6,8,10,12,14,16,18,20,22,24,26,28,30,-1,-1,-1,-1,-1,-1,-1,-1,-1,-1,-1,-1,-1,-1,-1,-1],"split_conditions":[2.48E2,7E-1,7E-1,9.3E1,6E0,8.68E2,9.6E1,3.75E1,1.5E0,1.23E1,3.1606097E2,9.5E1,3.9421487E-1,3.69E1,2.6E1,-1.8478485E-2,5.5152167E-2,8.384257E-2,8.690484E-4,-3.689142E-2,2.30129E-2,7.188762E-2,-1.3061847E-2,7.1191266E-2,2.198751E-2,2.093002E-2,1.08883135E-1,-4.3253697E-2,1.690474E-2,-5.0071836E-3,5.1893055E-2],"split_indices":[45,17,20,0,91,45,244,297,20,15,129,93,142,97,305,0,0,0,0,0,0,0,0,0,0,0,0,0,0,0,0],"split_type":[0,0,0,0,0,0,0,0,0,0,0,0,0,0,0,0,0,0,0,0,0,0,0,0,0,0,0,0,0,0,0],"sum_hessian":[4.2220825E2,2.9596674E2,1.2624152E2,8.688211E1,2.0908461E2,6.945794E1,5.678359E1,6.1615322E1,2.526679E1,1.9550385E2,1.3580775E1,5.6990246E1,1.2467692E1,1.6988138E1,3.9795452E1,4.937024E1,1.2245084E1,2.1013702E1,4.2530866E0,1.8380415E2,1.1699691E1,7.346475E0,6.2343E0,2.7451368E1,2.9538877E1,1.0109079E0,1.1456785E1,1.5378762E1,1.6093765E0,1.7658173E1,2.2137278E1],"tree_param":{"num_deleted":"0","num_feature":"500","num_nodes":"31","size_leaf_vector":"1"}},{"base_weights":[8.179861E-3,-3.1303588E-1,6.450568E-1,-4.1069812E-1,1.3755221E0,1.2276236E0,1.4328104E-1,-5.694378E-1,4.9133682E-1,1.7294086E0,-1.5339051E-1,6.9505066E-1,1.5663087E0,-3.2090113E-1,9.007567E-1,6.9067754E-2,-3.0376269E-2,-1.2837999E-2,4.8675936E-2,4.6134204E-2,1.2121246E-1,3.639778E-2,-3.657898E-2,6.327792E-2,-9.728504E-4,8.297019E-2,-7.58957E-3,4.2036112E-2,-2.9387796E-2,8.408618E-3,7.5442E-2],"categories":[],"categories_nodes":[],"categories_segments":[],"categories_sizes":[],"default_left":[0,0,0,0,0,0,0,0,0,0,0,0,0,0,0,0,0,0,0,0,0,0,0,0,0,0,0,0,0,0,0],"id":26,"left_children":[1,3,5,7,9,11,13,15,17,19,21,23,25,27,29,-1,-1,-1,-1,-1,-1,-1,-1,-1,-1,-1,-1,-1,-1,-1,-1],"loss_changes":[8.566695E1,4.6471863E1,4.0862717E1,3.807133E1,8.624874E0,1.0605553E1,2.7207129E1,1.7549149E1,1.4690384E1,4.841648E0,2.480468E0,1.103084E1,6.4630356E0,1.5437227E1,1.282152E1,0E0,0E0,0E0,0E0,0E0,0E0,0E0,0E0,0E0,0E0,0E0,0E0,0E0,0E0,0E0,0E0],"parents":[2147483647,0,0,1,1,2,2,3,3,4,4,5,5,6,6,7,7,8,8,9,9,10,10,11,11,12,12,13,13,14,14],"right_children":[2,4,6,8,10,12,14,16,18,20,22,24,26,28,30,-1,-1,-1,-1,-1,-1,-1,-1,-1,-1,-1,-1,-1,-1,-1,-1],"split_conditions":[1.4E-1,3.72E1,6E-1,5E0,1.7840448E1,8.4E1,8.16E0,3.47E1,1.5689539E0,1.58E2,1.04E2,9.6E1,1.49E2,9.4E1,1.19E0,6.9067754E-2,-3.0376269E-2,-1.2837999E-2,4.8675936E-2,4.6134204E-2,1.2121246E-1,3.639778E-2,-3.657898E-2,6.327792E-2,-9.728504E-4,8.297019E-2,-7.58957E-3,4.2036112E-2,-2.9387796E-2,8.408618E-3,7.5442E-2],"split_indices":[71,97,20,90,116,0,58,97,490,345,96,93,96,93,8,0,0,0,0,0,0,0,0,0,0,0,0,0,0,0,0],"split_type":[0,0,0,0,0,0,0,0,0,0,0,0,0,0,0,0,0,0,0,0,0,0,0,0,0,0,0,0,0,0,0],"sum_hessian":[4.1676886E2,2.773785E2,1.3939035E2,2.6292813E2,1.4450368E1,6.383301E1,7.555734E1,2.2389577E2,3.9032364E1,1.1627823E1,2.822545E0,2.600036E1,3.7832653E1,4.720587E1,2.835147E1,3.6122649E0,2.2028351E2,1.5481141E1,2.355122E1,6.457934E0,5.169889E0,1.0155275E0,1.8070176E0,1.4028163E1,1.1972197E1,3.592047E1,1.9121809E0,8.416822E0,3.8789047E1,1.3438312E1,1.4913158E1],"tree_param":{"num_deleted":"0","num_feature":"500","num_nodes":"31","size_leaf_vector":"1"}},{"base_weights":[8.622969E-3,8.286359E-1,-2.2776847E-1,4.068166E-1,1.3673474E0,-3.5974506E-1,1.1776967E0,8.1157386E-1,-4.9484044E-1,9.830881E-1,1.8555517E0,9.155245E-1,-4.532268E-1,1.9318542E0,5.8599406E-1,2.591809E-2,8.438144E-2,1.8097227E-2,-4.426404E-2,-2.2370504E-2,6.1938673E-2,1.0815541E-1,4.725604E-2,6.86328E-2,-3.307147E-2,-2.9037526E-2,2.284534E-2,1.6925955E-2,1.1485963E-1,-1.7597077E-2,6.028937E-2],"categories":[],"categories_nodes":[],"categories_segments":[],"categories_sizes":[],"default_left":[0,0,0,0,0,0,0,0,0,0,0,0,0,0,0,0,0,0,0,0,0,0,0,0,0,0,0,0,0,0,0],"id":27,"left_children":[1,3,5,7,9,11,13,15,17,19,21,23,25,27,29,-1,-1,-1,-1,-1,-1,-1,-1,-1,-1,-1,-1,-1,-1,-1,-1],"loss_changes":[8.01421E1,2.0466114E1,5.995623E1,1.9856771E1,5.7178726E0,3.5483673E1,1.126659E1,8.673382E0,6.0533247E0,9.56044E0,2.5981522E0,1.562945E1,3.215306E1,6.0796394E0,1.0309685E1,0E0,0E0,0E0,0E0,0E0,0E0,0E0,0E0,0E0,0E0,0E0,0E0,0E0,0E0,0E0,0E0],"parents":[2147483647,0,0,1,1,2,2,3,3,4,4,5,5,6,6,7,7,8,8,9,9,10,10,11,11,12,12,13,13,14,14],"right_children":[2,4,6,8,10,12,14,16,18,20,22,24,26,28,30,-1,-1,-1,-1,-1,-1,-1,-1,-1,-1,-1,-1,-1,-1,-1,-1],"split_conditions":[9.4E1,1.0417182E0,4.44E2,1.3E0,3.7E1,5.2E1,1.22E2,9.577143E1,1.55E1,7.981875E0,8.373785E0,2.4E0,5E0,4.9167827E-1,9.3E0,2.591809E-2,8.438144E-2,1.8097227E-2,-4.426404E-2,-2.2370504E-2,6.1938673E-2,1.0815541E-1,4.725604E-2,6.86328E-2,-3.307147E-2,-2.9037526E-2,2.284534E-2,1.6925955E-2,1.1485963E-1,-1.7597077E-2,6.028937E-2],"split_indices":[93,452,45,20,47,94,10,193,216,400,487,20,90,497,15,0,0,0,0,0,0,0,0,0,0,0,0,0,0,0,0],"split_type":[0,0,0,0,0,0,0,0,0,0,0,0,0,0,0,0,0,0,0,0,0,0,0,0,0,0,0,0,0,0,0],"sum_hessian":[4.1146237E2,9.1512245E1,3.1995013E2,5.230882E1,3.920343E1,2.9316522E2,2.6784891E1,3.6171295E1,1.6137522E1,2.3623425E1,1.5580006E1,1.9421757E1,2.7374347E2,1.0780123E1,1.6004768E1,2.8293331E1,7.877965E0,5.0746527E0,1.106287E1,3.468447E0,2.0154976E1,1.0617385E1,4.962621E0,1.5157433E1,4.2643228E0,2.4041899E2,3.332449E1,2.3700984E0,8.410025E0,6.53997E0,9.464798E0],"tree_param":{"num_deleted":"0","num_feature":"500","num_nodes":"31","size_leaf_vector":"1"}},{"base_weights":[9.116728E-3,4.1173053E-1,-4.4768348E-1,-7.845354E-2,8.221396E-1,1.0706054E0,-5.5586696E-1,-3.228022E-1,1.203552E0,5.396167E-1,1.5389594E0,2.2589661E-2,1.6813912E0,-6.19436E-1,9.553987E-1,-2.5486762E-2,3.3337425E-2,-1.2590795E-2,7.3103875E-2,1.2469347E-2,6.6499606E-2,8.912476E-2,1.4366679E-2,-3.4999974E-2,5.14898E-2,1.230066E-1,3.430767E-2,-3.402967E-2,2.8057221E-2,-2.307334E-2,7.311138E-2],"categories":[],"categories_nodes":[],"categories_segments":[],"categories_sizes":[],"default_left":[0,0,0,0,0,0,0,0,0,0,0,0,0,0,0,0,0,0,0,0,0,0,0,0,0,0,0,0,0,0,0],"id":28,"left_children":[1,3,5,7,9,11,13,15,17,19,21,23,25,27,29,-1,-1,-1,-1,-1,-1,-1,-1,-1,-1,-1,-1,-1,-1,-1,-1],"loss_changes":[7.5084785E1,4.3717438E1,3.20118E1,3.1650488E1,2.3105553E1,8.324376E0,1.7808018E1,1.5990848E1,6.4587555E0,1.9468855E1,9.508324E0,4.9594383E0,4.6982536E0,1.2842262E1,6.151822E0,0E0,0E0,0E0,0E0,0E0,0E0,0E0,0E0,0E0,0E0,0E0,0E0,0E0,0E0,0E0,0E0],"parents":[2147483647,0,0,1,1,2,2,3,3,4,4,5,5,6,6,7,7,8,8,9,9,10,10,11,11,12,12,13,13,14,14],"right_children":[2,4,6,8,10,12,14,16,18,20,22,24,26,28,30,-1,-1,-1,-1,-1,-1,-1,-1,-1,-1,-1,-1,-1,-1,-1,-1],"split_conditions":[1.35E1,1.15E0,5.4E1,1.1E1,1.67E0,1.5463719E-1,8E0,8.4E1,2.2E1,3.74E2,1.37E2,7.5E0,9.267401E-1,6E0,4.7538993E-1,-2.5486762E-2,3.3337425E-2,-1.2590795E-2,7.3103875E-2,1.2469347E-2,6.6499606E-2,8.912476E-2,1.4366679E-2,-3.4999974E-2,5.14898E-2,1.230066E-1,3.430767E-2,-3.402967E-2,2.8057221E-2,-2.307334E-2,7.311138E-2],"split_indices":[16,208,10,291,48,442,90,98,1,45,96,324,431,91,497,0,0,0,0,0,0,0,0,0,0,0,0,0,0,0,0],"split_type":[0,0,0,0,0,0,0,0,0,0,0,0,0,0,0,0,0,0,0,0,0,0,0,0,0,0,0,0,0,0,0],"sum_hessian":[4.0625797E2,2.1598878E2,1.9026917E2,9.87968E1,1.17191986E2,1.2063877E1,1.7820529E2,8.36092E1,1.5187603E1,8.531805E1,3.187394E1,4.823857E0,7.2400203E0,1.7157823E2,6.627054E0,7.073226E1,1.2876935E1,2.2948296E0,1.2892774E1,6.3365463E1,2.1952587E1,2.632717E1,5.54677E0,2.9863796E0,1.8374771E0,3.23603E0,4.00399E0,1.6353041E2,8.047818E0,1.7695872E0,4.8574667E0],"tree_param":{"num_deleted":"0","num_feature":"500","num_nodes":"31","size_leaf_vector":"1"}},{"base_weights":[9.577073E-3,-2.1263506E-1,8.055852E-1,-4.5476237E-1,4.4639173E-1,1.1330976E0,4.957035E-4,-6.6217685E-1,2.0533395E-1,1.1348825E0,4.6423085E-2,1.3674395E0,3.7914965E-1,-4.8812973E-1,9.272838E-1,3.2399092E-3,-4.042224E-2,6.025025E-2,-1.1948037E-2,6.851398E-2,-4.3128794E-3,-8.007024E-3,7.8006215E-2,7.792357E-2,2.68904E-2,-1.1314906E-2,5.7059158E-2,-4.0210433E-2,4.1189186E-2,2.748981E-3,7.911705E-2],"categories":[],"categories_nodes":[],"categories_segments":[],"categories_sizes":[],"default_left":[0,0,0,0,0,0,0,0,0,0,0,0,0,0,0,0,0,0,0,0,0,0,0,0,0,0,0,0,0,0,0],"id":29,"left_children":[1,3,5,7,9,11,13,15,17,19,21,23,25,27,29,-1,-1,-1,-1,-1,-1,-1,-1,-1,-1,-1,-1,-1,-1,-1,-1],"loss_changes":[7.128607E1,5.0482277E1,2.3189663E1,3.17533E1,2.3399967E1,1.05271E1,1.2422703E1,1.876197E1,2.514983E1,9.10191E0,1.7419945E1,6.6596985E0,7.7359447E0,8.111074E0,5.32417E0,0E0,0E0,0E0,0E0,0E0,0E0,0E0,0E0,0E0,0E0,0E0,0E0,0E0,0E0,0E0,0E0],"parents":[2147483647,0,0,1,1,2,2,3,3,4,4,5,5,6,6,7,7,8,8,9,9,10,10,11,11,12,12,13,13,14,14],"right_children":[2,4,6,8,10,12,14,16,18,20,22,24,26,28,30,-1,-1,-1,-1,-1,-1,-1,-1,-1,-1,-1,-1,-1,-1,-1,-1],"split_conditions":[9.7E1,2.48E2,1.4E0,8E1,9.5E1,1.1538461E0,3E0,5.9E1,3.5E1,1.03E1,8.68E2,7.72E1,3.059375E0,5.524145E-2,1.9416058E-1,3.2399092E-3,-4.042224E-2,6.025025E-2,-1.1948037E-2,6.851398E-2,-4.3128794E-3,-8.007024E-3,7.8006215E-2,7.792357E-2,2.68904E-2,-1.1314906E-2,5.7059158E-2,-4.0210433E-2,4.1189186E-2,2.748981E-3,7.911705E-2],"split_indices":[0,45,20,98,93,117,91,94,64,80,45,307,156,459,121,0,0,0,0,0,0,0,0,0,0,0,0,0,0,0,0],"split_type":[0,0,0,0,0,0,0,0,0,0,0,0,0,0,0,0,0,0,0,0,0,0,0,0,0,0,0,0,0,0,0],"sum_hessian":[4.010449E2,3.1409546E2,8.6949425E1,2.2992914E2,8.416632E1,6.151681E1,2.5432613E1,1.7495262E2,5.4976513E1,3.0252827E1,5.391349E1,4.6309273E1,1.5207539E1,1.6962748E1,8.469866E0,2.9397793E1,1.4555482E2,1.6388937E1,3.8587574E1,2.5261147E1,4.991681E0,4.8226574E1,5.686917E0,3.692774E1,9.381537E0,8.8662195E0,6.3413186E0,1.3981245E1,2.9815018E0,4.0974474E0,4.3724184E0],"tree_param":{"num_deleted":"0","num_feature":"500","num_nodes":"31","size_leaf_vector":"1"}},{"base_weights":[9.736854E-3,-2.875757E-1,5.730364E-1,-3.8381535E-1,1.269175E0,1.0831081E0,1.2983964E-1,-5.3592324E-1,4.1370162E-1,1.5862468E0,-1.5333608E-1,6.9580936E-1,1.486409E0,-3.038854E-1,8.0075866E-1,-4.1312557E-2,-1.3037838E-2,-1.366921E-2,4.23807E-2,1.6441094E-2,9.525044E-2,3.3835903E-2,-3.5391446E-2,5.230109E-2,4.1298214E-3,4.6433102E-2,9.176801E-2,3.5173476E-2,-2.8030986E-2,7.2833076E-3,6.589232E-2],"categories":[],"categories_nodes":[],"categories_segments":[],"categories_sizes":[],"default_left":[0,0,0,0,0,0,0,0,0,0,0,0,0,0,0,0,0,0,0,0,0,0,0,0,0,0,0,0,0,0,0],"id":30,"left_children":[1,3,5,7,9,11,13,15,17,19,21,23,25,27,29,-1,-1,-1,-1,-1,-1,-1,-1,-1,-1,-1,-1,-1,-1,-1,-1],"loss_changes":[6.668512E1,3.953684E1,3.0954449E1,3.0092136E1,7.1924553E0,8.933434E0,2.199126E1,1.6339806E1,1.215876E1,4.4588146E0,2.191212E0,7.3082905E0,4.2085724E0,1.2321292E1,9.841352E0,0E0,0E0,0E0,0E0,0E0,0E0,0E0,0E0,0E0,0E0,0E0,0E0,0E0,0E0,0E0,0E0],"parents":[2147483647,0,0,1,1,2,2,3,3,4,4,5,5,6,6,7,7,8,8,9,9,10,10,11,11,12,12,13,13,14,14],"right_children":[2,4,6,8,10,12,14,16,18,20,22,24,26,28,30,-1,-1,-1,-1,-1,-1,-1,-1,-1,-1,-1,-1,-1,-1,-1,-1],"split_conditions":[1.4E-1,3.72E1,6E-1,5E0,1.7840448E1,7E-1,8.16E0,6.6E1,1.5689539E0,5.4E1,5.7692246E0,5.0397515E0,8.7E1,9.4E1,1.19E0,-4.1312557E-2,-1.3037838E-2,-1.366921E-2,4.23807E-2,1.6441094E-2,9.525044E-2,3.3835903E-2,-3.5391446E-2,5.230109E-2,4.1298214E-3,4.6433102E-2,9.176801E-2,3.5173476E-2,-2.8030986E-2,7.2833076E-3,6.589232E-2],"split_indices":[71,97,20,90,116,42,58,98,490,98,494,118,0,93,8,0,0,0,0,0,0,0,0,0,0,0,0,0,0,0,0],"split_type":[0,0,0,0,0,0,0,0,0,0,0,0,0,0,0,0,0,0,0,0,0,0,0,0,0,0,0,0,0,0,0],"sum_hessian":[3.961932E2,2.5964215E2,1.3655106E2,2.4523495E2,1.4407182E1,6.281449E1,7.3736565E1,2.0622948E2,3.900549E1,1.16870775E1,2.7201035E0,3.343317E1,2.938132E1,4.5117065E1,2.8619501E1,9.9375626E1,1.0685384E2,1.524132E1,2.376417E1,2.7744045E0,8.912673E0,1.0010875E0,1.719016E0,2.0830719E1,1.260245E1,1.2716758E1,1.6664562E1,8.8097925E0,3.6307274E1,1.3190416E1,1.5429085E1],"tree_param":{"num_deleted":"0","num_feature":"500","num_nodes":"31","size_leaf_vector":"1"}},{"base_weights":[9.941036E-3,8.520839E-1,-1.8081087E-1,1.053152E0,-1.1313915E-1,-4.396161E-1,4.2129302E-1,5.62453E-1,1.3834538E0,-5.7892966E-1,1.224883E0,-5.1412475E-1,8.952257E-1,5.219361E-2,1.4605671E0,6.263244E-2,5.3692365E-4,2.947834E-2,8.419645E-2,4.1024473E-2,-4.395255E-2,1.6283697E-2,7.2832726E-2,-2.7511556E-2,7.681723E-2,8.4760465E-2,-2.3477865E-2,-1.5504404E-2,3.8118586E-2,4.577651E-3,8.783865E-2],"categories":[],"categories_nodes":[],"categories_segments":[],"categories_sizes":[],"default_left":[0,0,0,0,0,0,0,0,0,0,0,0,0,0,0,0,0,0,0,0,0,0,0,0,0,0,0,0,0,0,0],"id":31,"left_children":[1,3,5,7,9,11,13,15,17,19,21,23,25,27,29,-1,-1,-1,-1,-1,-1,-1,-1,-1,-1,-1,-1,-1,-1,-1,-1],"loss_changes":[6.3207867E1,1.4221378E1,5.0182774E1,8.984444E0,9.07931E0,2.2826912E1,3.711895E1,9.855879E0,7.4314804E0,5.19051E0,3.152666E-1,1.6661655E1,1.4174947E1,1.8912603E1,1.0128956E1,0E0,0E0,0E0,0E0,0E0,0E0,0E0,0E0,0E0,0E0,0E0,0E0,0E0,0E0,0E0,0E0],"parents":[2147483647,0,0,1,1,2,2,3,3,4,4,5,5,6,6,7,7,8,8,9,9,10,10,11,11,12,12,13,13,14,14],"right_children":[2,4,6,8,10,12,14,16,18,20,22,24,26,28,30,-1,-1,-1,-1,-1,-1,-1,-1,-1,-1,-1,-1,-1,-1,-1,-1],"split_conditions":[9.3E1,3E-1,6.09E0,9.879508E0,1.31E2,1.09E2,1.59E0,6.1E1,8.6E1,8.5E1,8.891017E0,3.76E1,8E-1,5.0275224E-1,9.4E0,6.263244E-2,5.3692365E-4,2.947834E-2,8.419645E-2,4.1024473E-2,-4.395255E-2,1.6283697E-2,7.2832726E-2,-2.7511556E-2,7.681723E-2,8.4760465E-2,-2.3477865E-2,-1.5504404E-2,3.8118586E-2,4.577651E-3,8.783865E-2],"split_indices":[93,322,58,400,46,0,48,94,294,310,109,97,20,431,211,0,0,0,0,0,0,0,0,0,0,0,0,0,0,0,0],"split_type":[0,0,0,0,0,0,0,0,0,0,0,0,0,0,0,0,0,0,0,0,0,0,0,0,0,0,0,0,0,0,0],"sum_hessian":[3.9151532E2,7.16636E1,3.198517E2,5.9233433E1,1.2430164E1,2.238871E2,9.5964615E1,2.491796E1,3.431547E1,9.641205E0,2.7889593E0,2.1263312E2,1.1253985E1,7.1589676E1,2.4374939E1,1.050532E1,1.4412641E1,1.0235173E1,2.40803E1,1.3963555E0,8.244849E0,1.0644273E0,1.724532E0,2.0967268E2,2.9604301E0,6.942468E0,4.3115177E0,4.7779427E1,2.3810253E1,4.568622E0,1.9806316E1],"tree_param":{"num_deleted":"0","num_feature":"500","num_nodes":"31","size_leaf_vector":"1"}},{"base_weights":[1.0562806E-2,3.7250182E-1,-4.1853517E-1,9.396579E-1,8.033963E-2,9.509373E-1,-5.2462375E-1,1.1919421E0,9.650053E-2,-2.0664175E-1,8.417424E-1,-1.153866E-2,1.4936591E0,-6.170682E-1,4.5189872E-1,5.0868254E-2,1.4105381E-1,-2.3363141E-2,3.9661672E-2,-1.87706E-2,6.438215E-2,5.4821383E-2,3.3421646E-4,-3.5228457E-2,4.5528058E-2,1.0656854E-1,2.4328928E-2,2.9567858E-2,-3.3798374E-2,-3.556302E-2,4.462923E-2],"categories":[],"categories_nodes":[],"categories_segments":[],"categories_sizes":[],"default_left":[0,0,0,0,0,0,0,0,0,0,0,0,0,0,0,0,0,0,0,0,0,0,0,0,0,0,0,0,0,0,0],"id":32,"left_children":[1,3,5,7,9,11,13,15,17,19,21,23,25,27,29,-1,-1,-1,-1,-1,-1,-1,-1,-1,-1,-1,-1,-1,-1,-1,-1],"loss_changes":[6.030526E1,3.48239E1,2.6312702E1,1.5097183E1,3.0787289E1,6.8757668E0,1.5223415E1,1.2760025E1,7.2673492E0,2.6346422E1,8.190945E0,4.3010645E0,4.359833E0,1.1193691E1,8.269213E0,0E0,0E0,0E0,0E0,0E0,0E0,0E0,0E0,0E0,0E0,0E0,0E0,0E0,0E0,0E0,0E0],"parents":[2147483647,0,0,1,1,2,2,3,3,4,4,5,5,6,6,7,7,8,8,9,9,10,10,11,11,12,12,13,13,14,14],"right_children":[2,4,6,8,10,12,14,16,18,20,22,24,26,28,30,-1,-1,-1,-1,-1,-1,-1,-1,-1,-1,-1,-1,-1,-1,-1,-1],"split_conditions":[1.35E1,8.9E1,5.4E1,2.4E1,1.15E2,1.5463719E-1,4E0,1.23E1,3.702429E-2,7.2E1,7.58E1,7.5E0,6.94367E-1,8.6E1,6.41E1,5.0868254E-2,1.4105381E-1,-2.3363141E-2,3.9661672E-2,-1.87706E-2,6.438215E-2,5.4821383E-2,3.3421646E-4,-3.5228457E-2,4.5528058E-2,1.0656854E-1,2.4328928E-2,2.9567858E-2,-3.3798374E-2,-3.556302E-2,4.462923E-2],"split_indices":[16,393,10,379,200,442,91,16,456,39,307,324,404,96,14,0,0,0,0,0,0,0,0,0,0,0,0,0,0,0,0],"split_type":[0,0,0,0,0,0,0,0,0,0,0,0,0,0,0,0,0,0,0,0,0,0,0,0,0,0,0,0,0,0,0],"sum_hessian":[3.8629248E2,2.0961589E2,1.766766E2,7.0514435E1,1.3910146E2,1.2129978E1,1.6454663E2,5.395631E1,1.6558128E1,1.0155341E2,3.7548035E1,4.726547E0,7.4034314E0,1.5065288E2,1.3893749E1,5.0201256E1,3.7550538E0,9.334469E0,7.2236595E0,9.192035E1,9.633068E0,2.8532795E1,9.015242E0,2.8331327E0,1.8934141E0,3.8494606E0,3.5539708E0,6.5814905E0,1.4407138E2,3.6488595E0,1.024489E1],"tree_param":{"num_deleted":"0","num_feature":"500","num_nodes":"31","size_leaf_vector":"1"}},{"base_weights":[1.0939133E-2,-2.2472006E-1,6.364311E-1,3.8548794E-1,-4.5326698E-1,3.7950516E-1,1.2108791E0,4.836052E-2,1.5063152E0,-5.512573E-1,6.613861E-1,1.4819611E0,1.3769133E-1,1.3264158E0,2.0414723E-1,-7.2462484E-3,7.6026276E-2,1.0810343E-2,9.8496504E-2,-2.924708E-2,1.3234325E-1,-1.4511569E-2,7.230829E-2,8.358842E-2,-1.5521983E-2,-5.3107184E-3,6.2342085E-2,6.89913E-2,-2.2356953E-3,3.398142E-2,-2.7160028E-2],"categories":[],"categories_nodes":[],"categories_segments":[],"categories_sizes":[],"default_left":[0,0,0,0,0,0,0,0,0,0,0,0,0,0,0,0,0,0,0,0,0,0,0,0,0,0,0,0,0,0,0],"id":33,"left_children":[1,3,5,7,9,11,13,15,17,19,21,23,25,27,29,-1,-1,-1,-1,-1,-1,-1,-1,-1,-1,-1,-1,-1,-1,-1,-1],"loss_changes":[5.656613E1,3.905233E1,1.50391655E1,2.8833824E1,2.256673E1,1.9527645E1,3.450817E0,1.7248959E1,1.0134571E1,2.1735058E1,1.3026041E1,5.0137844E0,1.6852036E1,2.1502953E0,1.9596739E0,0E0,0E0,0E0,0E0,0E0,0E0,0E0,0E0,0E0,0E0,0E0,0E0,0E0,0E0,0E0,0E0],"parents":[2147483647,0,0,1,1,2,2,3,3,4,4,5,5,6,6,7,7,8,8,9,9,10,10,11,11,12,12,13,13,14,14],"right_children":[2,4,6,8,10,12,14,16,18,20,22,24,26,28,30,-1,-1,-1,-1,-1,-1,-1,-1,-1,-1,-1,-1,-1,-1,-1,-1],"split_conditions":[3E0,1.06E2,3.8E1,1.26E2,8.98E1,2.6052632E0,2.05E1,4.34E2,1.1E0,2.1E0,5.17E0,1.47E2,1.67E0,3.31E2,1.3678572E0,-7.2462484E-3,7.6026276E-2,1.0810343E-2,9.8496504E-2,-2.924708E-2,1.3234325E-1,-1.4511569E-2,7.230829E-2,8.358842E-2,-1.5521983E-2,-5.3107184E-3,6.2342085E-2,6.89913E-2,-2.2356953E-3,3.398142E-2,-2.7160028E-2],"split_indices":[91,96,1,46,14,191,30,244,89,22,58,96,48,329,124,0,0,0,0,0,0,0,0,0,0,0,0,0,0,0,0],"split_type":[0,0,0,0,0,0,0,0,0,0,0,0,0,0,0,0,0,0,0,0,0,0,0,0,0,0,0,0,0,0,0],"sum_hessian":[3.817815E2,2.777701E2,1.0401141E2,7.550067E1,2.0226942E2,7.3015396E1,3.0996014E1,5.8844353E1,1.665632E1,1.863892E2,1.5880222E1,1.2211823E1,6.0803574E1,2.7520144E1,3.4758704E0,5.281204E1,6.032314E0,4.790916E0,1.1865405E1,1.852551E2,1.1341056E0,7.4620166E0,8.418206E0,1.11033325E1,1.1084914E0,5.0584187E1,1.0219386E1,2.6482225E1,1.0379181E0,2.1797025E0,1.2961679E0],"tree_param":{"num_deleted":"0","num_feature":"500","num_nodes":"31","size_leaf_vector":"1"}},{"base_weights":[1.1685466E-2,-2.4104404E-1,5.6831074E-1,-4.688624E-1,4.4397548E-1,8.660764E-1,-9.81903E-2,-5.3570676E-1,1.0905069E0,-3.0116772E-2,1.2923951E0,5.587765E-1,1.611083E0,-5.515499E-1,7.435733E-1,-2.9676158E-2,5.6779888E-2,8.169728E-2,-1.2700714E-3,-1.6471295E-2,5.0575145E-2,1.5097377E-2,9.451978E-2,1.1998347E-2,5.7556015E-2,9.1144666E-2,1.6459329E-2,-3.3692017E-2,4.3565825E-2,4.95429E-3,1.012451E-1],"categories":[],"categories_nodes":[],"categories_segments":[],"categories_sizes":[],"default_left":[0,0,0,0,0,0,0,0,0,0,0,0,0,0,0,0,0,0,0,0,0,0,0,0,0,0,0,0,0,0,0],"id":34,"left_children":[1,3,5,7,9,11,13,15,17,19,21,23,25,27,29,-1,-1,-1,-1,-1,-1,-1,-1,-1,-1,-1,-1,-1,-1,-1,-1],"loss_changes":[5.330324E1,4.0880997E1,2.3565372E1,2.1021072E1,2.6408154E1,1.78452E1,1.4695334E1,1.890561E1,5.1285515E0,1.3749738E1,1.3362076E1,1.0959911E1,5.7479706E0,4.9204297E0,1.0971872E1,0E0,0E0,0E0,0E0,0E0,0E0,0E0,0E0,0E0,0E0,0E0,0E0,0E0,0E0,0E0,0E0],"parents":[2147483647,0,0,1,1,2,2,3,3,4,4,5,5,6,6,7,7,8,8,9,9,10,10,11,11,12,12,13,13,14,14],"right_children":[2,4,6,8,10,12,14,16,18,20,22,24,26,28,30,-1,-1,-1,-1,-1,-1,-1,-1,-1,-1,-1,-1,-1,-1,-1,-1],"split_conditions":[9.1E1,2.98E1,1.4E0,3.72E1,1.36E0,9E-1,2.1165049E-1,5.9E1,1.57E1,1.25E2,9.49E1,1.09E2,2.7E1,1.45E2,3.68E1,-2.9676158E-2,5.6779888E-2,8.169728E-2,-1.2700714E-3,-1.6471295E-2,5.0575145E-2,1.5097377E-2,9.451978E-2,1.1998347E-2,5.7556015E-2,9.1144666E-2,1.6459329E-2,-3.3692017E-2,4.3565825E-2,4.95429E-3,1.012451E-1],"split_indices":[0,5,20,97,48,42,121,1,216,46,27,0,79,53,97,0,0,0,0,0,0,0,0,0,0,0,0,0,0,0,0],"split_type":[0,0,0,0,0,0,0,0,0,0,0,0,0,0,0,0,0,0,0,0,0,0,0,0,0,0,0,0,0,0,0],"sum_hessian":[3.7693503E2,2.5962305E2,1.17312E2,1.9506532E2,6.455773E1,8.087907E1,3.643293E1,1.8767677E2,7.388546E0,4.2033913E1,2.2523817E1,5.8499325E1,2.2379742E1,2.3903616E1,1.2529314E1,1.8202477E2,5.6520114E0,4.6565924E0,2.7319536E0,3.318263E1,8.851282E0,9.046063E0,1.3477755E1,3.8944073E1,1.9555254E1,1.884407E1,3.5356705E0,2.2496538E1,1.4070785E0,9.053088E0,3.4762263E0],"tree_param":{"num_deleted":"0","num_feature":"500","num_nodes":"31","size_leaf_vector":"1"}},{"base_weights":[1.2400621E-2,6.8201536E-1,-1.9111665E-1,3.7857515E-1,1.2640674E0,-3.7103555E-1,5.439728E-1,1.5854491E-1,1.5380888E0,1.9646161E0,9.269657E-1,5.8044966E-2,-6.0214514E-1,3.7024256E-2,1.2309524E0,-1.4091018E-2,3.5050187E-2,1.9513423E-2,1.0036961E-1,1.1285001E-1,1.523217E-2,-1.2367419E-3,5.866862E-2,-3.26088E-3,8.5959114E-2,-3.40338E-2,2.3613192E-2,4.5358542E-2,-1.8073937E-2,2.56003E-2,7.9329215E-2],"categories":[],"categories_nodes":[],"categories_segments":[],"categories_sizes":[],"default_left":[0,0,0,0,0,0,0,0,0,0,0,0,0,0,0,0,0,0,0,0,0,0,0,0,0,0,0,0,0,0,0],"id":35,"left_children":[1,3,5,7,9,11,13,15,17,19,21,23,25,27,29,-1,-1,-1,-1,-1,-1,-1,-1,-1,-1,-1,-1,-1,-1,-1,-1],"loss_changes":[5.098251E1,1.4921825E1,3.8153336E1,1.4743178E1,5.1343117E0,2.2954311E1,1.974605E1,1.2258338E1,4.2016544E0,3.5228157E0,5.1360207E0,1.6865402E1,1.3003223E1,1.2024136E1,5.3493233E0,0E0,0E0,0E0,0E0,0E0,0E0,0E0,0E0,0E0,0E0,0E0,0E0,0E0,0E0,0E0,0E0],"parents":[2147483647,0,0,1,1,2,2,3,3,4,4,5,5,6,6,7,7,8,8,9,9,10,10,11,11,12,12,13,13,14,14],"right_children":[2,4,6,8,10,12,14,16,18,20,22,24,26,28,30,-1,-1,-1,-1,-1,-1,-1,-1,-1,-1,-1,-1,-1,-1,-1,-1],"split_conditions":[9.4E1,3.75E1,1.033E1,2.17E0,6E-1,1.03E1,3.2E0,3E0,2E0,1.135E1,1.2361331E1,5.3E0,1E2,3.44E0,1.3385546E0,-1.4091018E-2,3.5050187E-2,1.9513423E-2,1.0036961E-1,1.1285001E-1,1.523217E-2,-1.2367419E-3,5.866862E-2,-3.26088E-3,8.5959114E-2,-3.40338E-2,2.3613192E-2,4.5358542E-2,-1.8073937E-2,2.56003E-2,7.9329215E-2],"split_indices":[93,297,58,48,220,16,256,91,57,309,446,54,93,213,465,0,0,0,0,0,0,0,0,0,0,0,0,0,0,0,0],"split_type":[0,0,0,0,0,0,0,0,0,0,0,0,0,0,0,0,0,0,0,0,0,0,0,0,0,0,0,0,0,0,0],"sum_hessian":[3.7214978E2,8.6195915E1,2.8595386E2,5.774318E1,2.8452734E1,2.3012437E2,5.5829487E1,4.9488865E1,8.254312E0,7.6749854E0,2.0777748E1,8.082069E1,1.493037E2,3.273038E1,2.3099106E1,2.7580023E1,2.1908844E1,2.9270165E0,5.3272953E0,6.2197847E0,1.4552006E0,4.458237E0,1.6319511E1,7.613213E1,4.6885486E0,1.3947559E2,9.828105E0,9.88018E0,2.2850199E1,8.452075E0,1.4647032E1],"tree_param":{"num_deleted":"0","num_feature":"500","num_nodes":"31","size_leaf_vector":"1"}},{"base_weights":[1.3114169E-2,9.045055E-1,-1.3205077E-1,4.6670562E-1,1.3408047E0,-2.970897E-1,5.9896183E-1,1.1892298E0,-4.53175E-2,1.422124E0,7.3979585E-4,-4.3175334E-1,4.7704187E-1,1.1910808E-1,1.004344E0,-7.1546542E-3,7.3091395E-2,4.953401E-2,-1.8902147E-2,7.3592335E-2,8.495745E-3,-2.372828E-2,6.2384564E-2,-3.9184853E-3,5.9832912E-2,5.4633077E-2,-1.9506061E-2,6.265227E-2,1.8056463E-3],"categories":[],"categories_nodes":[],"categories_segments":[],"categories_sizes":[],"default_left":[0,0,0,0,0,0,0,0,0,0,0,0,0,0,0,0,0,0,0,0,0,0,0,0,0,0,0,0,0],"id":36,"left_children":[1,3,5,7,9,11,13,15,17,19,-1,21,23,25,27,-1,-1,-1,-1,-1,-1,-1,-1,-1,-1,-1,-1,-1,-1],"loss_changes":[4.7828E1,9.261257E0,3.853512E1,1.0179453E1,2.7168922E0,2.731475E1,1.133588E1,4.345299E0,6.2281904E0,1.2388344E0,0E0,1.6556618E1,1.5684532E1,1.4358372E1,7.6091843E0,0E0,0E0,0E0,0E0,0E0,0E0,0E0,0E0,0E0,0E0,0E0,0E0,0E0,0E0],"parents":[2147483647,0,0,1,1,2,2,3,3,4,4,5,5,6,6,7,7,8,8,9,9,11,11,12,12,13,13,14,14],"right_children":[2,4,6,8,10,12,14,16,18,20,-1,22,24,26,28,-1,-1,-1,-1,-1,-1,-1,-1,-1,-1,-1,-1,-1,-1],"split_conditions":[9.2E1,1.1E2,9.9E1,4.8E1,1.0913636E2,1.04E1,1.2E-1,5.4E1,3.2792454E0,1.23E1,7.3979585E-4,3.75E1,8.8E1,5.6898737E-1,1.564249E1,-7.1546542E-3,7.3091395E-2,4.953401E-2,-1.8902147E-2,7.3592335E-2,8.495745E-3,-2.372828E-2,6.2384564E-2,-3.9184853E-3,5.9832912E-2,5.4633077E-2,-1.9506061E-2,6.265227E-2,1.8056463E-3],"split_indices":[96,46,0,94,127,15,271,98,118,80,0,97,344,117,477,0,0,0,0,0,0,0,0,0,0,0,0,0,0],"split_type":[0,0,0,0,0,0,0,0,0,0,0,0,0,0,0,0,0,0,0,0,0,0,0,0,0,0,0,0,0],"sum_hessian":[3.6769406E2,5.0761303E1,3.1693277E2,2.6370146E1,2.4391155E1,2.5904288E2,5.788989E1,1.0388356E1,1.5981791E1,2.2913471E1,1.477684E0,2.2103511E2,3.8007767E1,2.7102402E1,3.0787487E1,1.8451691E0,8.543187E0,3.4043357E0,1.2577455E1,2.186967E1,1.0438004E0,2.1624016E2,4.7949495E0,2.195423E1,1.6053535E1,8.914256E0,1.8188147E1,2.4261488E1,6.5260005E0],"tree_param":{"num_deleted":"0","num_feature":"500","num_nodes":"29","size_leaf_vector":"1"}},{"base_weights":[1.3449459E-2,-2.3093037E-1,5.230593E-1,3.3856556E-1,-4.9589187E-1,1.7495628E-1,9.564047E-1,-1.226559E-2,1.0852759E0,2.9432017E-1,-6.191311E-1,5.6235474E-1,-3.4129986E-1,1.3513397E0,4.2310658E-1,-1.5735917E-2,4.926838E-2,6.401669E-2,-1.6987551E-2,-4.4892495E-3,8.234497E-2,-3.4813028E-2,2.1007827E-2,4.7113344E-2,-8.3943065E-3,-2.5568862E-2,6.188004E-2,-3.0913267E-2,7.3120415E-2,-1.1045311E-2,4.685405E-2],"categories":[],"categories_nodes":[],"categories_segments":[],"categories_sizes":[],"default_left":[0,0,0,0,0,0,0,0,0,0,0,0,0,0,0,0,0,0,0,0,0,0,0,0,0,0,0,0,0,0,0],"id":37,"left_children":[1,3,5,7,9,11,13,15,17,19,21,23,25,27,29,-1,-1,-1,-1,-1,-1,-1,-1,-1,-1,-1,-1,-1,-1,-1,-1],"loss_changes":[4.549185E1,3.742794E1,1.7691078E1,2.0708916E1,1.6633266E1,1.3566495E1,1.048827E1,1.682611E1,7.457367E0,1.2340698E1,1.2032639E1,1.0862064E1,8.49862E0,7.404442E0,8.0843525E0,0E0,0E0,0E0,0E0,0E0,0E0,0E0,0E0,0E0,0E0,0E0,0E0,0E0,0E0,0E0,0E0],"parents":[2147483647,0,0,1,1,2,2,3,3,4,4,5,5,6,6,7,7,8,8,9,9,10,10,11,11,12,12,13,13,14,14],"right_children":[2,4,6,8,10,12,14,16,18,20,22,24,26,28,30,-1,-1,-1,-1,-1,-1,-1,-1,-1,-1,-1,-1,-1,-1,-1,-1],"split_conditions":[2.48E2,7E-1,1.08E2,9.3E1,7.6E1,3.2E1,2.18E2,3.75E1,7.4E1,1.408E1,6E0,1.84E1,2.6E1,6.3E-1,1.095E1,-1.5735917E-2,4.926838E-2,6.401669E-2,-1.6987551E-2,-4.4892495E-3,8.234497E-2,-3.4813028E-2,2.1007827E-2,4.7113344E-2,-8.3943065E-3,-2.5568862E-2,6.188004E-2,-3.0913267E-2,7.3120415E-2,-1.1045311E-2,4.685405E-2],"split_indices":[45,17,46,0,396,38,10,297,395,9,91,78,2,58,9,0,0,0,0,0,0,0,0,0,0,0,0,0,0,0,0],"split_type":[0,0,0,0,0,0,0,0,0,0,0,0,0,0,0,0,0,0,0,0,0,0,0,0,0,0,0,0,0,0,0],"sum_hessian":[3.6331393E2,2.4592781E2,1.17386116E2,7.800014E1,1.6792767E2,6.587387E1,5.151224E1,5.3736423E1,2.4263716E1,2.2468843E1,1.4545883E2,3.7582603E1,2.8291271E1,2.8714056E1,2.2798185E1,4.1760433E1,1.1975987E1,2.143168E1,2.8320348E0,1.8226505E1,4.242339E0,1.3571683E2,9.742002E0,2.4530247E1,1.3052356E1,2.615049E1,2.140782E0,1.2890215E0,2.7425035E1,1.0372094E1,1.2426091E1],"tree_param":{"num_deleted":"0","num_feature":"500","num_nodes":"31","size_leaf_vector":"1"}},{"base_weights":[1.3423879E-2,7.3453915E-1,-1.5385847E-1,4.4861448E-1,1.3333037E0,-3.877487E-1,3.5328138E-1,9.7639453E-1,1.9623576E-2,2.5038546E-1,1.541462E0,-4.5926538E-1,7.5432986E-1,4.409471E-2,1.2960274E0,5.4860342E-2,-1.3003948E-2,-1.8449482E-2,5.676591E-2,-3.224286E-2,3.9933655E-2,8.923492E-2,2.3491457E-2,-2.4766315E-2,8.204684E-2,7.0907995E-2,-2.3713728E-2,-1.263689E-2,3.7584044E-2,7.536263E-2,-9.465271E-3],"categories":[],"categories_nodes":[],"categories_segments":[],"categories_sizes":[],"default_left":[0,0,0,0,0,0,0,0,0,0,0,0,0,0,0,0,0,0,0,0,0,0,0,0,0,0,0,0,0,0,0],"id":38,"left_children":[1,3,5,7,9,11,13,15,17,19,21,23,25,27,29,-1,-1,-1,-1,-1,-1,-1,-1,-1,-1,-1,-1,-1,-1,-1,-1],"loss_changes":[4.3545414E1,1.1038227E1,3.4900444E1,1.0737469E1,4.4515E0,1.6767822E1,2.7058788E1,3.4643803E0,1.2224126E1,2.7993908E0,3.8028145E0,1.5189198E1,1.064417E1,1.51208315E1,7.482334E0,0E0,0E0,0E0,0E0,0E0,0E0,0E0,0E0,0E0,0E0,0E0,0E0,0E0,0E0,0E0,0E0],"parents":[2147483647,0,0,1,1,2,2,3,3,4,4,5,5,6,6,7,7,8,8,9,9,10,10,11,11,12,12,13,13,14,14],"right_children":[2,4,6,8,10,12,14,16,18,20,22,24,26,28,30,-1,-1,-1,-1,-1,-1,-1,-1,-1,-1,-1,-1,-1,-1,-1,-1],"split_conditions":[9.3E1,9.551282E1,6.09E0,4.2E0,8.1E1,1.09E2,1.67E0,1.35268545E1,3.68E1,1.13E2,4.1E0,3.39E1,8E-1,1.23E2,2.9E0,5.4860342E-2,-1.3003948E-2,-1.8449482E-2,5.676591E-2,-3.224286E-2,3.9933655E-2,8.923492E-2,2.3491457E-2,-2.4766315E-2,8.204684E-2,7.0907995E-2,-2.3713728E-2,-1.263689E-2,3.7584044E-2,7.536263E-2,-9.465271E-3],"split_indices":[93,193,58,316,294,0,48,407,97,46,6,82,20,46,20,0,0,0,0,0,0,0,0,0,0,0,0,0,0,0,0],"split_type":[0,0,0,0,0,0,0,0,0,0,0,0,0,0,0,0,0,0,0,0,0,0,0,0,0,0,0,0,0,0,0],"sum_hessian":[3.5904684E2,6.696883E1,2.92078E2,4.650892E1,2.0459906E1,2.0005098E2,9.202703E1,2.0281239E1,2.6227678E1,3.653882E0,1.6806023E1,1.8882469E2,1.1226294E1,7.00876E1,2.1939428E1,1.8578608E1,1.7026317E0,1.9948566E1,6.279112E0,1.3209344E0,2.3329477E0,1.3154784E1,3.651239E0,1.8638852E2,2.4361746E0,7.188159E0,4.038135E0,4.9827694E1,2.0259909E1,1.9195004E1,2.7444263E0],"tree_param":{"num_deleted":"0","num_feature":"500","num_nodes":"31","size_leaf_vector":"1"}},{"base_weights":[1.3818836E-2,-1.9731325E-1,5.610592E-1,-3.6409545E-1,5.5427456E-1,7.8394574E-1,-1.0931257E-3,-6.4016616E-1,8.953249E-2,2.0171574E-1,1.5556706E0,1.1317117E0,3.5475263E-1,-5.5137587E-1,7.837211E-1,1.912659E-2,-3.612703E-2,3.5633396E-2,-1.677893E-2,6.7701004E-2,-7.4868947E-3,1.295349E-1,3.1336095E-2,3.8168885E-2,8.0354065E-2,-2.7063316E-2,3.2215457E-2,-3.8663637E-2,3.7009146E-2,5.239321E-2,-9.494699E-3],"categories":[],"categories_nodes":[],"categories_segments":[],"categories_sizes":[],"default_left":[0,0,0,0,0,0,0,0,0,0,0,0,0,0,0,0,0,0,0,0,0,0,0,0,0,0,0,0,0,0,0],"id":39,"left_children":[1,3,5,7,9,11,13,15,17,19,21,23,25,27,29,-1,-1,-1,-1,-1,-1,-1,-1,-1,-1,-1,-1,-1,-1,-1,-1],"loss_changes":[4.1222248E1,3.2479767E1,1.2445435E1,2.6524076E1,1.6336126E1,1.0214336E1,1.3041724E1,1.1354919E1,2.1652353E1,1.4793828E1,1.0040281E1,5.572502E0,8.986141E0,5.6594954E0,3.4001045E0,0E0,0E0,0E0,0E0,0E0,0E0,0E0,0E0,0E0,0E0,0E0,0E0,0E0,0E0,0E0,0E0],"parents":[2147483647,0,0,1,1,2,2,3,3,4,4,5,5,6,6,7,7,8,8,9,9,10,10,11,11,12,12,13,13,14,14],"right_children":[2,4,6,8,10,12,14,16,18,20,22,24,26,28,30,-1,-1,-1,-1,-1,-1,-1,-1,-1,-1,-1,-1,-1,-1,-1,-1],"split_conditions":[3E0,3.12E1,3.8E1,8.5E1,1.26E2,3.2961886E0,3.4E1,5.2E1,1.2E0,1.34E2,3.12E0,1.0433333E0,4.031804E0,7E0,6E-1,1.912659E-2,-3.612703E-2,3.5633396E-2,-1.677893E-2,6.7701004E-2,-7.4868947E-3,1.295349E-1,3.1336095E-2,3.8168885E-2,8.0354065E-2,-2.7063316E-2,3.2215457E-2,-3.8663637E-2,3.7009146E-2,5.239321E-2,-9.494699E-3],"split_indices":[91,5,395,0,46,407,202,94,220,153,13,148,444,90,68,0,0,0,0,0,0,0,0,0,0,0,0,0,0,0,0],"split_type":[0,0,0,0,0,0,0,0,0,0,0,0,0,0,0,0,0,0,0,0,0,0,0,0,0,0,0,0,0,0,0],"sum_hessian":[3.548209E2,2.564996E2,9.832128E1,2.1033948E2,4.616013E1,7.012359E1,2.8197693E1,1.30505E2,7.983448E1,3.5029E1,1.113113E1,3.7832165E1,3.2291424E1,1.6750385E1,1.1447308E1,9.456499E0,1.2104851E2,3.2102146E1,4.7732334E1,7.520161E0,2.7508839E1,4.418842E0,6.712289E0,2.2784079E1,1.5048085E1,7.674318E0,2.4617104E1,1.4636963E1,2.1134229E0,8.944414E0,2.5028934E0],"tree_param":{"num_deleted":"0","num_feature":"500","num_nodes":"31","size_leaf_vector":"1"}},{"base_weights":[1.4011293E-2,-2.186965E-1,4.8697436E-1,3.1389034E-1,-4.7532293E-1,1.3224268E-1,8.5409325E-1,2.208582E-2,1.1467642E0,2.8347766E-1,-5.985793E-1,-2.0406996E-1,7.453737E-1,1.1492603E0,2.4048111E-1,-1.8576382E-2,4.560202E-2,4.0389174E-3,7.6196864E-2,-2.32378E-3,9.295176E-2,-3.3311196E-2,2.5027558E-2,-1.7690578E-2,6.020501E-2,5.7124287E-2,-8.282791E-3,5.5804024E-3,6.470924E-2,-3.470717E-2,2.7059663E-2],"categories":[],"categories_nodes":[],"categories_segments":[],"categories_sizes":[],"default_left":[0,0,0,0,0,0,0,0,0,0,0,0,0,0,0,0,0,0,0,0,0,0,0,0,0,0,0,0,0,0,0],"id":40,"left_children":[1,3,5,7,9,11,13,15,17,19,21,23,25,27,29,-1,-1,-1,-1,-1,-1,-1,-1,-1,-1,-1,-1,-1,-1,-1,-1],"loss_changes":[3.8846046E1,3.248635E1,1.5043234E1,1.8818748E1,1.5139744E1,1.2601126E1,1.0048965E1,2.0809736E1,7.957342E0,1.206667E1,1.059502E1,8.812481E0,8.003759E0,5.604336E0,5.935124E0,0E0,0E0,0E0,0E0,0E0,0E0,0E0,0E0,0E0,0E0,0E0,0E0,0E0,0E0,0E0,0E0],"parents":[2147483647,0,0,1,1,2,2,3,3,4,4,5,5,6,6,7,7,8,8,9,9,10,10,11,11,12,12,13,13,14,14],"right_children":[2,4,6,8,10,12,14,16,18,20,22,24,26,28,30,-1,-1,-1,-1,-1,-1,-1,-1,-1,-1,-1,-1,-1,-1,-1,-1],"split_conditions":[2.48E2,7E-1,9.85E0,8E1,7.6E1,1.67E2,3.13E2,3.75E1,7.13522E0,1.6E2,8E0,3.3617593E2,4.2420554E0,1.3857582E0,3.1990001E0,-1.8576382E-2,4.560202E-2,4.0389174E-3,7.6196864E-2,-2.32378E-3,9.295176E-2,-3.3311196E-2,2.5027558E-2,-1.7690578E-2,6.020501E-2,5.7124287E-2,-8.282791E-3,5.5804024E-3,6.470924E-2,-3.470717E-2,2.7059663E-2],"split_indices":[45,17,9,98,396,244,10,297,400,3,91,162,477,493,113,0,0,0,0,0,0,0,0,0,0,0,0,0,0,0,0],"split_type":[0,0,0,0,0,0,0,0,0,0,0,0,0,0,0,0,0,0,0,0,0,0,0,0,0,0,0,0,0,0,0],"sum_hessian":[3.509787E2,2.3559741E2,1.1538129E2,7.653604E1,1.5906137E2,5.9372417E1,5.6008873E1,5.7438488E1,1.9097551E1,2.2045174E1,1.3701619E2,3.877232E1,2.0600098E1,3.722805E1,1.8780823E1,4.0228542E1,1.7209944E1,5.3085175E0,1.3789035E1,1.9030342E1,3.0148325E0,1.294436E2,7.572584E0,3.5722424E1,3.0498977E0,1.41696E1,6.4304976E0,4.7792115E0,3.2448837E1,4.253246E0,1.4527577E1],"tree_param":{"num_deleted":"0","num_feature":"500","num_nodes":"31","size_leaf_vector":"1"}},{"base_weights":[1.4129722E-2,7.690847E-1,-1.2644327E-1,4.5572758E-1,1.3179E0,-3.086021E-1,4.239284E-1,7.3710275E-1,-4.218983E-1,5.960239E-1,1.6138592E0,-4.0034503E-1,7.9563266E-1,-1.9834827E-1,8.0402666E-1,5.1372793E-2,-2.9466876E-3,2.8449196E-2,-3.6780175E-2,-1.4929538E-2,4.258221E-2,8.687483E-2,1.1476722E-2,-2.5744809E-2,1.2319524E-2,5.444313E-2,-2.9306842E-2,-2.4891134E-2,5.082432E-2,6.0899623E-2,1.2216883E-2],"categories":[],"categories_nodes":[],"categories_segments":[],"categories_sizes":[],"default_left":[0,0,0,0,0,0,0,0,0,0,0,0,0,0,0,0,0,0,0,0,0,0,0,0,0,0,0,0,0,0,0],"id":41,"left_children":[1,3,5,7,9,11,13,15,17,19,21,23,25,27,29,-1,-1,-1,-1,-1,-1,-1,-1,-1,-1,-1,-1,-1,-1,-1,-1],"loss_changes":[3.7046852E1,8.822544E0,2.9643185E1,9.301512E0,3.179882E0,2.2783035E1,1.7573284E1,6.516679E0,3.363725E0,1.905962E0,1.8541946E0,1.5344112E1,7.666029E0,1.0954654E1,1.0337828E1,0E0,0E0,0E0,0E0,0E0,0E0,0E0,0E0,0E0,0E0,0E0,0E0,0E0,0E0,0E0,0E0],"parents":[2147483647,0,0,1,1,2,2,3,3,4,4,5,5,6,6,7,7,8,8,9,9,10,10,11,11,12,12,13,13,14,14],"right_children":[2,4,6,8,10,12,14,16,18,20,22,24,26,28,30,-1,-1,-1,-1,-1,-1,-1,-1,-1,-1,-1,-1,-1,-1,-1,-1],"split_conditions":[9.4E1,1.28E2,9E0,1.87E1,1.51E1,3.71E1,1.15E0,9.690909E1,5.897436E-2,5.92E0,3.3241177E2,5E0,3.2994375E0,1.3276474E1,2.86E2,5.1372793E-2,-2.9466876E-3,2.8449196E-2,-3.6780175E-2,-1.4929538E-2,4.258221E-2,8.687483E-2,1.1476722E-2,-2.5744809E-2,1.2319524E-2,5.444313E-2,-2.9306842E-2,-2.4891134E-2,5.082432E-2,6.0899623E-2,1.2216883E-2],"split_indices":[96,46,15,16,330,97,208,193,125,258,110,90,436,400,10,0,0,0,0,0,0,0,0,0,0,0,0,0,0,0,0],"split_type":[0,0,0,0,0,0,0,0,0,0,0,0,0,0,0,0,0,0,0,0,0,0,0,0,0,0,0,0,0,0,0],"sum_hessian":[3.471664E2,5.379364E1,2.9337277E2,3.5407436E1,1.8386204E1,2.2074962E2,7.2623146E1,2.693268E1,8.474754E0,6.222569E0,1.2163636E1,2.0440456E2,1.634506E1,2.7719849E1,4.49033E1,1.952152E1,7.41116E0,1.8421882E0,6.632566E0,1.3455029E0,4.877066E0,1.0932139E1,1.2314966E0,1.738209E2,3.0583658E1,1.3658519E1,2.6865408E0,2.2711378E1,5.0084715E0,2.5135788E1,1.9767511E1],"tree_param":{"num_deleted":"0","num_feature":"500","num_nodes":"31","size_leaf_vector":"1"}},{"base_weights":[1.4175963E-2,2.6502392E-1,-3.9419082E-1,-1.9085528E-1,5.764168E-1,-4.3872875E-1,1.0631237E-1,-3.9838734E-1,6.549692E-1,3.4668636E-1,1.1147075E0,-5.562041E-1,4.1212532E-1,-2.7889624E-2,3.6302604E-2,7.450195E-2,-1.606634E-2,1.4485797E-3,4.671324E-2,7.0976834E-3,6.6649765E-2,-3.1495344E-2,3.1548157E-2,8.835315E-2,-7.74595E-3],"categories":[],"categories_nodes":[],"categories_segments":[],"categories_sizes":[],"default_left":[0,0,0,0,0,0,0,0,0,0,0,0,0,0,0,0,0,0,0,0,0,0,0,0,0],"id":42,"left_children":[1,3,5,7,9,11,-1,13,15,17,19,21,23,-1,-1,-1,-1,-1,-1,-1,-1,-1,-1,-1,-1],"loss_changes":[3.536377E1,3.0463661E1,1.56808605E1,1.5625513E1,1.5354744E1,1.3216015E1,0E0,1.311435E1,1.4846617E1,1.689906E1,7.7999268E0,1.0423809E1,1.28255005E1,0E0,0E0,0E0,0E0,0E0,0E0,0E0,0E0,0E0,0E0,0E0,0E0],"parents":[2147483647,0,0,1,1,2,2,3,3,4,4,5,5,7,7,8,8,9,9,10,10,11,11,12,12],"right_children":[2,4,6,8,10,12,-1,14,16,18,20,22,24,-1,-1,-1,-1,-1,-1,-1,-1,-1,-1,-1,-1],"split_conditions":[1.4E0,1.77E0,5.4E0,9.7E1,1.43E0,1.56E2,1.0631237E-1,2.5865352E0,3.4545454E-1,1.23E2,2.83E1,8E0,1.03E2,-2.7889624E-2,3.6302604E-2,7.450195E-2,-1.606634E-2,1.4485797E-3,4.671324E-2,7.0976834E-3,6.6649765E-2,-3.1495344E-2,3.1548157E-2,8.835315E-2,-7.74595E-3],"split_indices":[20,58,81,0,48,344,0,493,119,46,28,90,96,0,0,0,0,0,0,0,0,0,0,0,0],"split_type":[0,0,0,0,0,0,0,0,0,0,0,0,0,0,0,0,0,0,0,0,0,0,0,0,0],"sum_hessian":[3.4320148E2,2.1282202E2,1.3037944E2,8.652968E1,1.2629235E2,1.2892714E2,1.4523025E0,6.9906395E1,1.6623283E1,8.966807E1,3.6624283E1,1.13590294E2,1.5336836E1,6.1668015E1,8.238376E0,8.676051E0,7.947232E0,5.88799E1,3.0788168E1,7.0147643E0,2.960952E1,1.0739247E2,6.1978283E0,3.9004774E0,1.1436358E1],"tree_param":{"num_deleted":"0","num_feature":"500","num_nodes":"25","size_leaf_vector":"1"}},{"base_weights":[1.4423702E-2,5.774135E-1,-1.6171099E-1,2.2344276E-1,9.748321E-1,-2.3743322E-1,1.1941407E0,-1.8448587E-1,9.050986E-1,1.6024828E0,7.102277E-1,-3.75265E-1,4.989624E-1,1.6452562E0,1.4325167E-1,-2.5999913E-2,4.30925E-2,6.82159E-2,-3.5727706E-3,9.7034186E-2,-1.6841667E-2,5.067376E-2,5.797851E-4,6.669444E-3,-3.0595396E-2,4.63119E-2,-1.6259901E-3,9.388768E-2,7.7772173E-3,-3.249455E-2,4.831645E-2],"categories":[],"categories_nodes":[],"categories_segments":[],"categories_sizes":[],"default_left":[0,0,0,0,0,0,0,0,0,0,0,0,0,0,0,0,0,0,0,0,0,0,0,0,0,0,0,0,0,0,0],"id":43,"left_children":[1,3,5,7,9,11,13,15,17,19,21,23,25,27,29,-1,-1,-1,-1,-1,-1,-1,-1,-1,-1,-1,-1,-1,-1,-1,-1],"loss_changes":[3.3866283E1,1.1230324E1,2.6998047E1,1.2496573E1,5.179512E0,2.5285194E1,6.3677254E0,1.04780855E1,7.617979E0,7.5305843E0,6.0378523E0,2.5221825E1,8.980785E0,3.0503254E0,4.074153E0,0E0,0E0,0E0,0E0,0E0,0E0,0E0,0E0,0E0,0E0,0E0,0E0,0E0,0E0,0E0,0E0],"parents":[2147483647,0,0,1,1,2,2,3,3,4,4,5,5,6,6,7,7,8,8,9,9,10,10,11,11,12,12,13,13,14,14],"right_children":[2,4,6,8,10,12,14,16,18,20,22,24,26,28,30,-1,-1,-1,-1,-1,-1,-1,-1,-1,-1,-1,-1,-1,-1,-1,-1],"split_conditions":[9.4E1,3.72E1,5.3E0,8.1E1,2.8811362E0,5E0,7.36E1,1.2E2,3.1E1,1.77E1,8.9E1,1E0,8E-1,7E-1,8.967188E0,-2.5999913E-2,4.30925E-2,6.82159E-2,-3.5727706E-3,9.7034186E-2,-1.6841667E-2,5.067376E-2,5.797851E-4,6.669444E-3,-3.0595396E-2,4.63119E-2,-1.6259901E-3,9.388768E-2,7.7772173E-3,-3.249455E-2,4.831645E-2],"split_indices":[93,297,54,98,158,90,7,200,338,16,393,290,20,317,111,0,0,0,0,0,0,0,0,0,0,0,0,0,0,0,0],"split_type":[0,0,0,0,0,0,0,0,0,0,0,0,0,0,0,0,0,0,0,0,0,0,0,0,0,0,0,0,0,0,0],"sum_hessian":[3.3958304E2,8.038033E1,2.592027E2,4.334039E1,3.7039948E1,2.4627357E2,1.2929118E1,2.7570509E1,1.5769878E1,9.485018E0,2.7554932E1,2.0785886E2,3.8414715E1,8.650241E0,4.2788773E0,2.125729E1,6.3132186E0,1.0455951E1,5.3139286E0,8.075935E0,1.4090822E0,1.890039E1,8.654541E0,6.613685E1,1.4172202E2,2.0883251E1,1.7531462E1,7.2571464E0,1.3930945E0,2.2862194E0,1.9926581E0],"tree_param":{"num_deleted":"0","num_feature":"500","num_nodes":"31","size_leaf_vector":"1"}},{"base_weights":[1.4677334E-2,-2.1234812E-1,4.385227E-1,-3.898749E-1,3.7966073E-1,9.766684E-1,1.332863E-1,-5.1648E-1,6.221865E-1,7.636706E-1,-3.6533692E-1,7.285939E-1,1.8699441E0,-5.323125E-1,4.7538564E-1,2.022968E-2,-3.1031713E-2,-1.226835E-2,5.367914E-2,5.7466496E-2,4.8013727E-4,-3.1223062E-2,5.190411E-2,4.6875584E-3,5.600953E-2,1.0437157E-1,8.064053E-3,-3.7658226E-2,3.4362044E-2,1.01798214E-1,1.6433123E-2],"categories":[],"categories_nodes":[],"categories_segments":[],"categories_sizes":[],"default_left":[0,0,0,0,0,0,0,0,0,0,0,0,0,0,0,0,0,0,0,0,0,0,0,0,0,0,0,0,0,0,0],"id":44,"left_children":[1,3,5,7,9,11,13,15,17,19,21,23,25,27,29,-1,-1,-1,-1,-1,-1,-1,-1,-1,-1,-1,-1,-1,-1,-1,-1],"loss_changes":[3.2523705E1,2.328511E1,1.92337E1,2.2085287E1,1.4953386E1,8.056988E0,1.7644337E1,1.4786602E1,7.836905E0,9.926239E0,7.238818E0,8.572712E0,2.8594017E0,7.628452E0,1.1003175E1,0E0,0E0,0E0,0E0,0E0,0E0,0E0,0E0,0E0,0E0,0E0,0E0,0E0,0E0,0E0,0E0],"parents":[2147483647,0,0,1,1,2,2,3,3,4,4,5,5,6,6,7,7,8,8,9,9,10,10,11,11,12,12,13,13,14,14],"right_children":[2,4,6,8,10,12,14,16,18,20,22,24,26,28,30,-1,-1,-1,-1,-1,-1,-1,-1,-1,-1,-1,-1,-1,-1,-1,-1],"split_conditions":[5.41379E-1,8.1E1,4.9615383E-1,1.23E1,1.6E0,3.54E1,2E0,5.5E1,2.6E1,2.5423193E-1,2.03E1,1.61E1,1.8809181E-1,1.8520401E1,2.5589855E0,2.022968E-2,-3.1031713E-2,-1.226835E-2,5.367914E-2,5.7466496E-2,4.8013727E-4,-3.1223062E-2,5.190411E-2,4.6875584E-3,5.600953E-2,1.0437157E-1,8.064053E-3,-3.7658226E-2,3.4362044E-2,1.01798214E-1,1.6433123E-2],"split_indices":[497,98,120,15,20,397,91,94,5,424,65,230,420,496,113,0,0,0,0,0,0,0,0,0,0,0,0,0,0,0,0],"split_type":[0,0,0,0,0,0,0,0,0,0,0,0,0,0,0,0,0,0,0,0,0,0,0,0,0,0,0,0,0,0,0],"sum_hessian":[3.360333E2,2.1914894E2,1.16884346E2,1.688554E2,5.029355E1,4.1506603E1,7.537775E1,1.5051607E2,1.8339327E1,3.317064E1,1.7122908E1,3.3906075E1,7.6005254E0,2.5400925E1,4.997682E1,1.4998077E1,1.3551799E2,6.4326434E0,1.1906683E1,2.15996E1,1.1571038E1,1.4922663E1,2.2002454E0,1.3408346E1,2.049773E1,6.545682E0,1.0548434E0,2.1830086E1,3.570839E0,3.1883745E0,4.678845E1],"tree_param":{"num_deleted":"0","num_feature":"500","num_nodes":"31","size_leaf_vector":"1"}},{"base_weights":[1.4958129E-2,-1.9237627E-1,4.6701244E-1,-4.374672E-1,2.8690407E-1,9.637849E-1,6.379373E-2,-5.0833154E-1,7.7325565E-1,6.933641E-2,1.2619182E0,1.395735E0,5.675496E-1,6.653422E-1,-2.753222E-1,-2.8962502E-2,3.7246436E-2,7.843242E-2,-1.44414855E-2,-1.0008288E-2,4.3026663E-2,3.2574393E-2,1.3896321E-1,7.638224E-2,-2.9192407E-2,1.4653317E-2,8.727556E-2,4.8928373E-2,-4.3382393E-3,-2.9873917E-2,1.7891826E-2],"categories":[],"categories_nodes":[],"categories_segments":[],"categories_sizes":[],"default_left":[0,0,0,0,0,0,0,0,0,0,0,0,0,0,0,0,0,0,0,0,0,0,0,0,0,0,0,0,0,0,0],"id":45,"left_children":[1,3,5,7,9,11,13,15,17,19,21,23,25,27,29,-1,-1,-1,-1,-1,-1,-1,-1,-1,-1,-1,-1,-1,-1,-1,-1],"loss_changes":[3.136834E1,2.7083792E1,2.1015951E1,1.3455002E1,1.6512623E1,7.264511E0,1.2249982E1,1.326812E1,7.8995543E0,1.4039797E1,1.1358583E1,6.5938835E0,7.971547E0,5.1775484E0,8.074003E0,0E0,0E0,0E0,0E0,0E0,0E0,0E0,0E0,0E0,0E0,0E0,0E0,0E0,0E0,0E0,0E0],"parents":[2147483647,0,0,1,1,2,2,3,3,4,4,5,5,6,6,7,7,8,8,9,9,10,10,11,11,12,12,13,13,14,14],"right_children":[2,4,6,8,10,12,14,16,18,20,22,24,26,28,30,-1,-1,-1,-1,-1,-1,-1,-1,-1,-1,-1,-1,-1,-1,-1,-1],"split_conditions":[1.15E2,1.16E0,5E-1,3.6695305E1,1.44E2,4.658491E1,9.5E1,1E1,9.458646E-1,3.4E1,1.005E2,1.1027333E1,3.25E2,2.7E1,8.27E0,-2.8962502E-2,3.7246436E-2,7.843242E-2,-1.44414855E-2,-1.0008288E-2,4.3026663E-2,3.2574393E-2,1.3896321E-1,7.638224E-2,-2.9192407E-2,1.4653317E-2,8.727556E-2,4.8928373E-2,-4.3382393E-3,-2.9873917E-2,1.7891826E-2],"split_indices":[200,8,20,197,46,192,93,91,124,47,327,111,362,179,58,0,0,0,0,0,0,0,0,0,0,0,0,0,0,0,0],"split_type":[0,0,0,0,0,0,0,0,0,0,0,0,0,0,0,0,0,0,0,0,0,0,0,0,0,0,0,0,0,0,0],"sum_hessian":[3.3272125E2,2.2849611E2,1.0422515E2,1.512422E2,7.725391E1,4.6072636E1,5.815252E1,1.4342746E2,7.814752E0,6.403586E1,1.3218046E1,2.0836042E1,2.5236593E1,2.0617575E1,3.7534943E1,1.3625497E2,7.1724877E0,4.1956735E0,3.6190789E0,4.8322853E1,1.5713007E1,1.0445263E1,2.772783E0,1.9748404E1,1.0876383E0,2.1480173E1,3.7564209E0,1.4343096E1,6.2744784E0,2.4914568E1,1.2620376E1],"tree_param":{"num_deleted":"0","num_feature":"500","num_nodes":"31","size_leaf_vector":"1"}},{"base_weights":[1.5485275E-2,-1.700114E-1,4.8658237E-1,-3.281827E-1,5.0766516E-1,2.655776E-1,1.0104963E0,-6.023152E-1,8.957748E-2,1.5141101E0,2.433154E-1,1.2344701E0,4.3429997E-2,1.1410831E0,-2.2671385E-2,-3.20356E-2,7.4949674E-2,3.0994767E-2,-1.4749591E-2,1.460016E-1,4.045384E-2,-3.550709E-3,5.9242077E-2,7.717896E-2,-3.1017144E-3,-8.180613E-3,4.9680375E-2,6.362896E-2,2.0490704E-2,3.5069823E-2,-2.8461862E-2],"categories":[],"categories_nodes":[],"categories_segments":[],"categories_sizes":[],"default_left":[0,0,0,0,0,0,0,0,0,0,0,0,0,0,0,0,0,0,0,0,0,0,0,0,0,0,0,0,0,0,0],"id":46,"left_children":[1,3,5,7,9,11,13,15,17,19,21,23,25,27,29,-1,-1,-1,-1,-1,-1,-1,-1,-1,-1,-1,-1,-1,-1,-1,-1],"loss_changes":[2.8940105E1,2.564256E1,1.0563787E1,2.2191511E1,1.1702072E1,1.4400267E1,3.7224655E0,1.0387932E1,1.5980183E1,6.8023853E0,1.1070539E1,5.100733E0,1.111329E1,1.8193512E0,2.0040233E0,0E0,0E0,0E0,0E0,0E0,0E0,0E0,0E0,0E0,0E0,0E0,0E0,0E0,0E0,0E0,0E0],"parents":[2147483647,0,0,1,1,2,2,3,3,4,4,5,5,6,6,7,7,8,8,9,9,10,10,11,11,12,12,13,13,14,14],"right_children":[2,4,6,8,10,12,14,16,18,20,22,24,26,28,30,-1,-1,-1,-1,-1,-1,-1,-1,-1,-1,-1,-1,-1,-1,-1,-1],"split_conditions":[3E0,3.13E1,3.8E1,8.5E1,1.29E2,2.6052632E0,2.05E1,9.5E1,1.2E0,6.364042E-1,1.26E2,1.3E0,1.67E0,4.8E0,3.04E1,-3.20356E-2,7.4949674E-2,3.0994767E-2,-1.4749591E-2,1.460016E-1,4.045384E-2,-3.550709E-3,5.9242077E-2,7.717896E-2,-3.1017144E-3,-8.180613E-3,4.9680375E-2,6.362896E-2,2.0490704E-2,3.5069823E-2,-2.8461862E-2],"split_indices":[91,5,1,0,353,191,30,98,220,415,46,324,48,318,205,0,0,0,0,0,0,0,0,0,0,0,0,0,0,0,0],"split_type":[0,0,0,0,0,0,0,0,0,0,0,0,0,0,0,0,0,0,0,0,0,0,0,0,0,0,0,0,0,0,0],"sum_hessian":[3.292253E2,2.3667323E2,9.255207E1,1.9230461E2,4.436862E1,6.6153275E1,2.6398796E1,1.15845505E2,7.6459114E1,8.24608E0,3.6122543E1,1.1488674E1,5.4664604E1,2.3343813E1,3.054982E0,1.1444929E2,1.3962201E0,3.1882074E1,4.4577038E1,1.7048028E0,6.5412774E0,2.7774551E1,8.34799E0,9.123018E0,2.365656E0,4.556407E1,9.1005335E0,1.9158518E1,4.1852965E0,1.1922541E0,1.862728E0],"tree_param":{"num_deleted":"0","num_feature":"500","num_nodes":"31","size_leaf_vector":"1"}},{"base_weights":[1.6180154E-2,-1.9371405E-1,4.234138E-1,2.8535274E-1,-4.350864E-1,1.3503122E-1,7.808488E-1,-4.935264E-2,8.6134547E-1,2.758164E-1,-5.595823E-1,4.8456132E-1,-3.4033355E-1,1.1429882E0,2.919798E-1,-2.2962185E-2,3.867896E-2,5.7469357E-2,3.5560314E-4,-2.3282403E-3,8.47724E-2,-3.1272035E-2,2.090654E-2,4.264733E-2,-7.794337E-3,-2.8182043E-2,3.8218364E-2,7.868601E-2,2.64279E-2,5.419732E-2,-4.998624E-3],"categories":[],"categories_nodes":[],"categories_segments":[],"categories_sizes":[],"default_left":[0,0,0,0,0,0,0,0,0,0,0,0,0,0,0,0,0,0,0,0,0,0,0,0,0,0,0,0,0,0,0],"id":47,"left_children":[1,3,5,7,9,11,13,15,17,19,21,23,25,27,29,-1,-1,-1,-1,-1,-1,-1,-1,-1,-1,-1,-1,-1,-1,-1,-1],"loss_changes":[2.8026129E1,2.514933E1,1.1388313E1,1.4137533E1,1.2926123E1,1.0619836E1,8.444273E0,1.6272009E1,6.6167564E0,1.0227723E1,8.190018E0,8.7853775E0,7.1529646E0,6.615555E0,7.074796E0,0E0,0E0,0E0,0E0,0E0,0E0,0E0,0E0,0E0,0E0,0E0,0E0,0E0,0E0,0E0,0E0],"parents":[2147483647,0,0,1,1,2,2,3,3,4,4,5,5,6,6,7,7,8,8,9,9,10,10,11,11,12,12,13,13,14,14],"right_children":[2,4,6,8,10,12,14,16,18,20,22,24,26,28,30,-1,-1,-1,-1,-1,-1,-1,-1,-1,-1,-1,-1,-1,-1,-1,-1],